{"weights": {"conv1.weight": [0.4393309950828552, 0.4103679060935974, 0.08168572187423706, 0.39682814478874207, 0.28412652015686035, 0.0763002559542656, 0.2892429828643799, 0.36628684401512146, 0.07825376093387604, 0.21512344479560852, 0.2053688019514084, 0.5719138979911804, -0.12247534841299057, 0.12711051106452942, 0.19260208308696747, -0.31032782793045044, -0.1347864866256714, 0.11876391619443893, -0.270479679107666, -0.018398694694042206, 0.3102262020111084, 0.0961725041270256, 0.21826837956905365, 0.4770459532737732, -0.08726967871189117, 0.22798556089401245, 0.3566531240940094, 0.2657492160797119, 0.32543566823005676, -0.037381552159786224, 0.41100630164146423, 0.5181970000267029, 0.30198267102241516, -0.12242239713668823, 0.342936247587204, 0.18677867949008942, 0.2588978409767151, 0.4033859372138977, 0.5071324110031128, 0.027356382459402084, 0.4491565525531769, 0.13504956662654877, 0.3630518913269043, -0.13375850021839142, -0.12608541548252106, 0.41949379444122314, 0.26559537649154663, 0.21129052340984344, 0.4543677866458893, 0.1098371148109436, 0.14110317826271057, -0.10316161811351776, 0.3721117079257965, 0.35943400859832764, -0.3573734164237976, -0.21851834654808044, -0.4989194869995117, -0.04453374817967415, -0.18708865344524384, 0.38714054226875305, 0.3294183313846588, 0.2555316090583801, 0.3909016251564026, 0.07551764696836472, 0.44915518164634705, -0.35752686858177185, 0.45816242694854736, -0.21434682607650757, -0.4610242247581482, 0.3822789788246155, -0.177937850356102, 0.15172648429870605], "conv1.bias": [-0.15494509041309357, -0.004015699028968811, 0.03958417847752571, 0.12850718200206757, 0.10828974097967148, -0.0017070617759600282, 0.22658205032348633, -0.1900232434272766], "conv2.weight": [-0.12204830348491669, 0.10070724040269852, 0.10004105418920517, 0.050597235560417175, -0.11303393542766571, -0.07699402421712875, 0.0075251637026667595, 0.09434003382921219, -0.044497981667518616, 0.028552576899528503, 0.10015402734279633, -0.020640896633267403, 0.05047984793782234, 0.03827286511659622, -0.1178148165345192, -0.015492241829633713, -0.06343438476324081, -0.01282355934381485, 0.15492229163646698, -0.056586772203445435, -0.022107452154159546, -0.00786612555384636, -0.08241242915391922, 0.10746322572231293, -0.05105886608362198, 0.15205328166484833, 0.1781507134437561, -0.09556768834590912, -0.03245585784316063, 0.0753457099199295, 0.034772224724292755, -0.08534755557775497, -0.08185373991727829, -0.0050815679132938385, -0.040359977632761, -0.04911813884973526, 0.07689817994832993, 0.08833055198192596, 0.07222117483615875, 0.019269300624728203, -0.014744056388735771, -0.026195017620921135, 0.08375398814678192, -0.06900467723608017, 0.08226244896650314, -0.0775928720831871, -0.02383963018655777, 0.1201813668012619, -0.02246236614882946, 0.044751327484846115, 0.021975379437208176, 0.07306073606014252, 0.07542497664690018, 0.0896034985780716, 0.0855170339345932, 0.0925837829709053, -0.04040788486599922, 0.12528668344020844, 0.05699491500854492, 0.11737564206123352, 0.08099739998579025, 0.009407227858901024, 0.11953487992286682, 0.20367835462093353, 0.29038482904434204, 0.2869403064250946, 0.22614917159080505, 0.248689204454422, 0.1876084953546524, 0.06520204246044159, 0.10560258477926254, 0.007772994693368673, -0.3835875689983368, 0.016659826040267944, 0.16913141310214996, 0.011222653090953827, 0.2027747631072998, 0.011987177655100822, -0.01093507744371891, -0.08875441551208496, -0.09303606301546097, 0.008134729228913784, 0.001758854603394866, 0.03114616870880127, -0.021954722702503204, 0.14370214939117432, -0.17616260051727295, -0.06979358196258545, 0.0380035862326622, -0.1270398050546646, 0.16427327692508698, 0.10230083763599396, -0.030616633594036102, 0.204291433095932, 0.13936258852481842, -0.08768998086452484, -0.07697996497154236, -0.13008086383342743, -0.20411427319049835, -0.16515162587165833, -0.01163430418819189, 0.07591085135936737, 0.016868388280272484, 0.07893533259630203, -0.10463355481624603, 0.0796714574098587, -0.07170259952545166, -0.20186200737953186, -0.13228969275951385, 0.12989313900470734, 0.2291269749403, 0.08439797908067703, 0.16855065524578094, -0.0739395022392273, 0.18450814485549927, 0.0818907618522644, -0.24201098084449768, -0.21726712584495544, -0.04350358620285988, 0.1865517944097519, -0.012689155526459217, 0.10492484271526337, 0.07348160445690155, -0.029217535629868507, 0.00935746543109417, -0.21888642013072968, 0.05378399044275284, 0.23467221856117249, -0.060663312673568726, 0.22254405915737152, -0.009046845138072968, -0.060700174421072006, -0.1717536598443985, -0.2001439779996872, -0.10638998448848724, -0.5330322980880737, 0.03939307853579521, 0.2376171201467514, 0.030449900776147842, 0.296159565448761, 0.3405044674873352, 0.3408280909061432, 0.0840260237455368, 0.06321879476308823, -0.2050183117389679, -0.10156653821468353, -0.14918804168701172, 0.05044272914528847, 0.07275312393903732, -0.05626095086336136, 0.045900844037532806, 0.03202550858259201, 0.0935090035200119, -0.1403617560863495, -0.09936510771512985, -0.10909634828567505, -0.24476158618927002, -0.25411054491996765, -0.15703700482845306, 0.1861393004655838, 0.10777249932289124, 0.0983865037560463, -0.19303107261657715, -0.10502787679433823, -0.16746215522289276, 0.04211677983403206, -0.0014293602434918284, -0.04537804424762726, 0.07181008160114288, 0.12199826538562775, -0.035003483295440674, -0.17996853590011597, -0.1408039629459381, -0.15384705364704132, -0.018639910966157913, 0.032463014125823975, -0.06636983156204224, 0.20083323121070862, 0.11007378995418549, 0.1413595974445343, -0.040708862245082855, -0.052031949162483215, -0.19845353066921234, -0.01575545035302639, -0.1587030589580536, -0.03425074741244316, 0.11430378258228302, 0.09776237607002258, 0.11738584190607071, -0.19974686205387115, -0.10011190921068192, -0.19466622173786163, 0.12241560965776443, 0.1673119217157364, 0.06141349673271179, 0.1327202469110489, 0.18804949522018433, 0.08191931992769241, 0.07144007086753845, -0.06748304516077042, 0.0040138959884643555, 0.21332743763923645, 0.20385615527629852, 0.14126013219356537, 0.08827480673789978, 0.16808323562145233, 0.134843647480011, -0.1760232299566269, -0.20514677464962006, -0.3129713833332062, 0.13331395387649536, -0.109764464199543, -0.16441479325294495, -0.01211556140333414, -0.0671316608786583, -0.01451606024056673, -0.09299153089523315, -0.10406863689422607, 0.031742267310619354, 0.013901904225349426, 0.08552643656730652, 0.03228010982275009, 0.01658325269818306, -0.10048629343509674, -0.00967414677143097, -0.013685495592653751, -0.018841201439499855, -0.06380681693553925, -0.06396108865737915, -0.09887009859085083, 0.0872025117278099, -0.08766695111989975, -0.06660199165344238, 0.01628231257200241, -0.1318812519311905, -0.12682032585144043, -0.04728899151086807, -0.06305790692567825, -0.02982337214052677, -0.022268399596214294, -0.03924950584769249, 0.013318439945578575, -0.10719931870698929, -0.10196971893310547, -0.1044982522726059, 0.0837041586637497, -0.053529221564531326, -0.003707658965140581, -0.03658968582749367, -0.015476612374186516, -0.07341355085372925, -0.013272332958877087, 0.08111556619405746, -0.04685019701719284, -0.1063266322016716, -0.01680944673717022, 0.027054311707615852, -0.10119440406560898, -0.12869133055210114, -0.010425003245472908, 0.09010344743728638, 0.07045754045248032, -0.022136542946100235, -0.08997668325901031, 0.07212891429662704, 0.004334697034209967, -0.03932937607169151, 0.04100653901696205, 0.11006033420562744, -0.07486925274133682, 0.06239095702767372, -0.07609833776950836, 0.12158165872097015, -0.09353227913379669, 0.01491247583180666, 0.059598658233881, 0.041782211512327194, -0.08789653331041336, -0.08974768966436386, -0.0693335011601448, -0.10408369451761246, -0.10654308646917343, 0.0774637907743454, -0.07410241663455963, -0.05534440279006958, -0.0009989949176087976, 0.00032370537519454956, -0.049898914992809296, -0.14290471374988556, -0.09550546109676361, 0.033893369138240814, -0.145920068025589, -0.020853430032730103, 0.09613141417503357, -0.17806626856327057, 0.11332225054502487, 0.1249176561832428, -0.0983165055513382, -0.26349279284477234, 0.08853740245103836, -0.15231898427009583, 0.04630978778004646, 0.12407521903514862, -0.11643483489751816, 0.08651090413331985, 0.03784007579088211, -0.15765298902988434, -0.015264030545949936, 0.140875443816185, -0.07414054125547409, 0.0447620153427124, 0.17439770698547363, 0.2391168773174286, 0.23179583251476288, 0.13085487484931946, -0.1972072571516037, -0.22897998988628387, 0.1303337663412094, -0.18036314845085144, -0.02596360258758068, 0.21961615979671478, -0.006883894093334675, 0.044454410672187805, -0.03271842002868652, -0.06315061450004578, -0.1729397475719452, -0.006264010909944773, -0.2087523341178894, -0.13150452077388763, 0.07265263050794601, -0.14312081038951874, 0.24344564974308014, 0.06218218058347702, -0.031654514372348785, -0.2443714290857315, -0.09067794680595398, -0.24818964302539825, 0.08356861770153046, 0.1833733320236206, -0.060799647122621536, 0.1446799486875534, 0.10029232501983643, -0.042981214821338654, 0.09282331168651581, 0.16966307163238525, -0.0002099755365634337, 0.1319490224123001, 0.1227373406291008, 0.17346613109111786, 0.13005176186561584, 0.09162291139364243, -0.22404970228672028, -0.22875475883483887, -0.4705280661582947, -0.12123149633407593, -0.27585074305534363, -0.18487529456615448, -0.18132589757442474, 0.022738680243492126, 0.0984521210193634, -0.22613610327243805, -0.07048886269330978, -0.02656199038028717, 0.1937829703092575, -0.07266821712255478, -0.06986067444086075, 0.12060575932264328, -0.03259747102856636, 0.05457262694835663, -0.263085275888443, -0.11827484518289566, -0.2225133627653122, 0.028446653857827187, 0.048575107008218765, -0.14612066745758057, 0.11707764118909836, 0.20718000829219818, 0.08729514479637146, -0.14748679101467133, -0.15589439868927002, -0.0011169422650709748, 0.05629846453666687, -0.031108587980270386, 0.10083362460136414, 0.0850730687379837, 0.1050574854016304, -0.023660795763134956, -0.07309065014123917, -0.10884641110897064, -0.05896051600575447, 0.22495098412036896, 0.04289993643760681, 0.04557390883564949, -0.0004029083647765219, 0.05521606281399727, 0.10509996861219406, -0.16088737547397614, -0.09815235435962677, -0.10160434246063232, 0.045748740434646606, -0.03057068958878517, -0.09824728220701218, 0.04670882225036621, 0.13857218623161316, 0.06728401780128479, -0.17640374600887299, -0.17437225580215454, -0.23731541633605957, 0.19424965977668762, 0.14750516414642334, 0.006032761186361313, 0.21594160795211792, 0.01952410116791725, 0.2048487812280655, 0.08889403194189072, -0.06862795352935791, -0.028527408838272095, 0.11616262793540955, 0.09101217240095139, 0.15489859879016876, -0.12629710137844086, -0.0975114107131958, -0.12553523480892181, -0.1497364342212677, -0.30224958062171936, -0.0680006891489029, -0.03672308102250099, -0.12315694987773895, -0.09744425863027573, -0.15560975670814514, -0.20314224064350128, -0.24221786856651306, 0.07510632276535034, 0.19899050891399384, -0.2784629464149475, 0.19410677254199982, 0.043244559317827225, -0.24185404181480408, 0.16978338360786438, 0.04049919545650482, -0.09493248909711838, 0.1090095043182373, -0.10969765484333038, -0.19834589958190918, 0.14322422444820404, -0.34259194135665894, -0.058995094150304794, 0.15357838571071625, -0.21536491811275482, 0.03062685951590538, 0.14763610064983368, -0.215924471616745, -0.1702137589454651, 0.07479831576347351, -0.05765806511044502, 0.0894768238067627, 0.130827397108078, -0.06850665807723999, 0.05555368587374687, 0.20009370148181915, 0.03806806728243828, -0.05597873777151108, 0.14423058927059174, 0.12900665402412415, -0.1902645230293274, 0.1330702006816864, 0.09658001363277435, -0.07436909526586533, 0.17573390901088715, -0.04954668879508972, -0.19325828552246094, 0.1412472277879715, -0.03842003643512726, -0.13295824825763702, 0.2281353622674942, -0.0034854563418775797, -0.023826036602258682, -0.005061360541731119, 0.0062828767113387585, -0.1877865195274353, 0.10369040817022324, -0.06582983583211899, -0.23069751262664795, 0.16975906491279602, -0.09028202295303345, -0.17863264679908752, 0.02419600822031498, -0.17942771315574646, -0.08074533939361572, -0.056624509394168854, -0.13064037263393402, 0.01808135397732258, -0.0752006322145462, -0.0753706842660904, 0.08013203740119934, 0.15292435884475708, 0.40626853704452515, 0.08655688911676407, 0.26363813877105713, 0.294931024312973, -0.19412457942962646, 0.22454868257045746, 0.2829025387763977, -0.1727888137102127, 0.1754060536623001, 0.1347448080778122, 0.25686731934547424, -0.12539330124855042, 0.06135796383023262, 0.1402246206998825, -0.114183709025383, -0.2533634305000305, 0.1269819587469101, 0.32223260402679443, 0.28748056292533875, 0.17028826475143433, 0.14681404829025269, 0.17434650659561157, 0.1566200852394104, -0.12808741629123688, 0.005825502332299948, 0.17070578038692474, -0.0009963719639927149, 0.15951703488826752, 0.12684457004070282, -0.13829074800014496, -0.1111442968249321, 0.13505050539970398, -0.2599261403083801, -0.12759675085544586, 0.0599328875541687, 0.11158683896064758, 0.2553044557571411, 0.055474650114774704, -0.2040518969297409, -0.09169550985097885, 0.04079694300889969, -0.11837027966976166, -0.2724302113056183, 0.12351253628730774, 0.08693929761648178, 0.23688440024852753, -0.0219669658690691, -0.01233105082064867, 0.060544513165950775, 0.12861068546772003, -0.2485477328300476, -0.19961608946323395, 0.07105986028909683, 0.2710556089878082, 0.12134252488613129, 0.08711300790309906, -0.1805657148361206, -0.12645728886127472, 0.04726753011345863, -0.21708916127681732, -0.27292755246162415, 0.09171922504901886, -0.06600169837474823, 0.13798902928829193, -0.04630507156252861, -0.25442373752593994, -0.18644274771213531, -0.11580062657594681, -0.13412919640541077, -0.040477901697158813, -0.12113292515277863, -0.15661828219890594, -0.35853463411331177, -0.15558280050754547, -0.49270081520080566, -0.36147984862327576, -0.06569647789001465, -0.30919507145881653, -0.14435610175132751, 0.02075689285993576, -0.0429619625210762, 0.09533374011516571, 0.11514114588499069, -0.17916472256183624, -0.37159264087677, -0.2700921893119812, 0.060743629932403564, 0.09010901302099228, -0.06472160667181015, 0.38146960735321045, 0.36385202407836914, 0.30162903666496277, -0.10387808829545975, -0.11848614364862442, -0.1046706885099411, -0.0043775420635938644, -0.168325275182724, -0.04230706766247749, 0.022993143647909164, 0.058626189827919006, -0.004325328394770622, -0.19497466087341309, -0.11215364187955856, -0.15868672728538513, 0.05034937709569931, 0.11800461262464523, -0.012089611031115055, 0.1660088300704956, 0.19851866364479065, 0.12569326162338257, -0.10977701842784882, -0.017387473955750465, -0.08112670481204987, 0.1272919476032257, 0.05050494521856308, -0.03591243550181389, 0.13234536349773407, 0.24354848265647888, 0.1755353808403015, -0.146831676363945, -0.12535475194454193, -0.06744050979614258, 0.10026074945926666, 0.03110230155289173, -0.08850022405385971, -0.04999736323952675, 0.18378007411956787, 0.16762608289718628, -0.21943815052509308, -0.24731674790382385, -0.21786361932754517, 0.04158541187644005, 0.14678718149662018, -0.08790188282728195, -0.09360355883836746, -0.002583354478701949, 0.06525978446006775, -0.03278617188334465, 0.04880142956972122, 0.13923022150993347, 0.16851435601711273, 0.17600835859775543, 0.1520676165819168, -0.25526875257492065, -0.19026504456996918, -0.1372886598110199, -0.2014099806547165, -0.5752771496772766, -0.3113850951194763, -0.04659176617860794, -0.21828660368919373, -0.06164848804473877, -0.07815571129322052, 0.0883086770772934, 0.17054429650306702, 0.21951743960380554, 0.0992848351597786, -0.20440825819969177, 0.2333013117313385, -0.3011399805545807, -0.06990326941013336, -0.062434494495391846, 0.12131653726100922, 0.0694439634680748, 0.15314508974552155, -0.11717015504837036, -0.22452960908412933, -0.11668036878108978, -0.23334743082523346, 0.20690160989761353, 0.13245028257369995, 0.20066657662391663, -0.05903715267777443, 0.2851528525352478, -0.19038937985897064, -0.1253892332315445, -0.20077061653137207, -0.23477612435817719, 0.2120266705751419, -0.061929576098918915, 0.12943054735660553, -0.011276956647634506, 0.0052190907299518585, -0.02147582359611988, -0.13287222385406494, 0.1484309285879135, -0.23627716302871704, 0.08195942640304565, 0.055051542818546295, 0.15681444108486176, 0.2527009844779968, 0.20118436217308044, 0.20960918068885803, -0.22102025151252747, 0.09076030552387238, -0.21739321947097778, 0.060990650206804276, 0.031091293320059776, 0.12884972989559174, 0.11497815698385239, 0.09019681811332703, -0.026866886764764786, -0.10855794697999954, 0.006160235032439232, -0.2531503140926361, -0.04953877255320549, 0.12376820296049118, 0.024480445310473442, -0.2683714032173157, 0.019746018573641777, -0.15650507807731628, 0.08951105922460556, -0.14926289021968842, -0.015909070149064064, 0.08039292693138123, -0.2627389430999756, 0.08916609734296799, 0.19483447074890137, 0.43678018450737, 0.20406430959701538, -0.028991514816880226, 0.4125607907772064, -0.05255413055419922, -0.22916722297668457, 0.19102239608764648, -0.20947396755218506, -0.08759140968322754, 0.031247353181242943, -0.2187359780073166, -0.09778653830289841, -0.24508051574230194, 0.011045991443097591, 0.1507233828306198, 0.12777894735336304, -0.05039776489138603, 0.1608176827430725, -0.08769071102142334, -0.10914374142885208, 0.11426318436861038, -0.05909125134348869, 0.1685943603515625, 0.15889319777488708, -0.06854018568992615, -0.3029475808143616, 0.1986178755760193, -0.19412359595298767, -0.02594386599957943, 0.06557223200798035, -0.05548492819070816, 0.22646839916706085, 0.21922528743743896, 0.2574201822280884, -0.22764109075069427, -0.06922728568315506, -0.07229311764240265, -0.15172819793224335, 0.04879561439156532, -0.10138698667287827, 0.13653729856014252, 0.08213991671800613, 0.26602086424827576, 0.05961252748966217, 0.036293625831604004, 0.1123519167304039, -0.1551060676574707, 0.12454737722873688, -0.17911705374717712, -0.03753891959786415, 0.057445723563432693, 0.08168186247348785, -0.08528478443622589, 0.1266232579946518, 0.002353366231545806, -0.2540665864944458, 0.016843723133206367, -0.023375442251563072, -0.03750677779316902, 0.15314358472824097, -0.16150715947151184, -0.1286253035068512, -0.046827446669340134, -0.17880888283252716, -0.059489067643880844, 0.0023507680743932724, 0.09571219235658646, 0.05445120111107826, 0.11992746591567993, 0.3199429512023926, -0.030024340376257896, -0.4435119032859802, 0.14454267919063568, -0.3931773602962494, -0.24959897994995117, 0.04234686493873596, -0.1587647795677185, 0.028253654018044472, -0.1206633448600769, 0.1610260009765625, 0.16190487146377563, -0.10909835249185562, 0.06884151697158813, 0.023761389777064323, -0.0397324301302433, 0.16237804293632507, -0.031583234667778015, 0.0653066635131836, 0.06653270125389099, -0.07123856991529465, 0.07783740013837814, 0.007097828201949596, -0.33151596784591675, 0.07502344250679016, 0.05270778015255928, -0.17828290164470673, 0.029872626066207886, 0.10676490515470505, -0.13276511430740356, 0.1612374186515808, 0.04176376014947891, -0.16311948001384735, 0.08864852786064148, -0.013621551916003227, -0.14819853007793427, 0.09647107869386673, 0.07840447127819061, -0.008096049539744854, -0.01612379029393196, 0.10708348453044891, -0.10069720447063446, 0.011408397927880287, 0.1828380972146988, -0.13898706436157227, 0.025908267125487328, 0.09922098368406296, -0.015473532490432262, -0.10426553338766098, 0.11389061063528061, -0.035072438418865204, 0.035003140568733215, 0.009265252389013767, -0.008656630292534828, 0.025063510984182358, 0.13794712722301483, -0.08245407044887543, 0.03360899165272713, 0.08650895953178406, 0.05579238384962082, 0.14007717370986938, 0.0010923456866294146, -0.023275606334209442, -0.02805297262966633, -0.14724034070968628, -0.19461411237716675, -0.014785588718950748, -0.16540920734405518, -0.2721627950668335, 0.005882409401237965, -0.18525077402591705, -0.15249024331569672, -0.32038143277168274, 0.1355164796113968, 0.10881025344133377, -0.2350839376449585, 0.016344178467988968, 0.1243281289935112, -0.22728759050369263, 0.02641209028661251, 0.31306010484695435, -0.21828849613666534, -0.20387272536754608, 0.12322594225406647, 0.12831242382526398, -0.3423781096935272, -0.033787649124860764, 0.20583482086658478, -0.028867216780781746, -0.13151144981384277, -0.024724092334508896, 0.10807227343320847, 0.17128224670886993, -0.1934293806552887, 0.030486036092042923, 0.17675703763961792, 0.007012710906565189, -0.3502209484577179, -0.10780904442071915, -0.22720254957675934, -0.012059248983860016, 0.16793763637542725, -0.1992395669221878, -0.07663178443908691, 0.06856627017259598, 0.11457153409719467, -0.007890076376497746, -0.09505797177553177, -0.12762528657913208, 0.055498674511909485, 0.17809522151947021, 0.10612982511520386, -0.14890573918819427, -0.025394396856427193, 0.06374705582857132, 0.04582890495657921, -0.17904852330684662, 0.011447147466242313, 0.09381525963544846, 0.04258651286363602, 0.0228695347905159, -0.12307876348495483, 0.18053965270519257, 0.10728216171264648, -0.12496702373027802, 0.02902591973543167, -0.22449803352355957, -0.06459862738847733, 0.22500453889369965, 0.212293803691864, -0.1747310310602188, 0.1272539496421814, 0.23646175861358643, -0.1669757217168808, -0.21596863865852356, 0.12507250905036926, -0.07876263558864594, 0.04869172349572182, 0.158140629529953, 0.02032410353422165, -0.0793212428689003, 0.08049465715885162, 0.18171899020671844, -0.022405419498682022, 0.013473531231284142, -0.18577943742275238, 0.016704469919204712, 0.1358668953180313, -0.12093162536621094, -0.28994596004486084, 0.1277092844247818, 0.12999944388866425, -0.02799990400671959, -0.059607066214084625, 0.010781005024909973, -0.10283316671848297, 0.10034643858671188, 0.11742274463176727, -0.05522305145859718, 0.06657680869102478, 0.053431976586580276, -0.0023672881070524454, -0.05526961013674736, -0.009703436866402626, -0.23742800951004028, 0.1068945899605751, 0.14077980816364288, -0.1736009269952774, 0.08196038752794266, 0.1799050271511078, 0.19556544721126556, 0.15800249576568604, 0.02562420815229416, 0.06426277756690979, 0.006284589413553476, 0.023505281656980515, 0.022961875423789024, 0.05567483603954315, 0.03886188566684723, 0.07986108958721161, -0.09535223245620728, 0.10333871096372604, -0.04215081408619881, 0.07032357156276703, 0.05590489134192467, 0.06368572264909744, -0.04844304174184799, 0.06787876039743423, 0.06408479809761047, -0.06848141551017761, 0.08751095831394196, 0.07516747713088989, -0.07157398760318756, 0.07207641005516052, 0.004033032804727554, 0.12838134169578552, 0.11659932881593704, 0.09607182443141937, -0.08425566554069519, -0.07883051037788391, -0.10752333700656891, -0.01418287679553032, 0.0707068145275116, 0.028935056179761887, -0.048105113208293915, 0.15218186378479004, 0.01085980050265789, 0.005212761461734772, -0.04937063902616501, 0.0328553207218647, -0.07570330053567886, 0.08287633955478668, 0.02682671695947647, -0.0879475548863411, 0.028990983963012695, 0.07407991588115692, 0.12098428606987, 0.23672495782375336, 0.23129449784755707, -0.07760779559612274, 0.11125808954238892, 0.22010277211666107, -0.11774907261133194, -0.013354243710637093, -0.050924431532621384, 0.06024801731109619, 0.1072315201163292, -0.18047109246253967, -0.021669618785381317, 0.17597992718219757, 0.07065380364656448, -0.27436333894729614, -0.09074804186820984, 0.01109608355909586, 0.0753975436091423, 0.0017936381045728922, -0.09683810919523239, 0.1773834377527237, 0.16794291138648987, -0.0913490578532219, 0.046702101826667786, 0.2640776038169861, 0.2039945274591446, 0.22162918746471405, -0.082628034055233, -0.13691595196723938, 0.03237760812044144, 0.21176254749298096, 0.05260982736945152, -0.21734407544136047, -0.14578616619110107, -0.10674000531435013, -0.05701274052262306, -0.06268051266670227, -0.15327736735343933, 0.007440951652824879, 0.07146880775690079, 0.10743371397256851, -0.17297057807445526, -0.017974581569433212, 0.19983281195163727, 0.06912503391504288, -0.07774673402309418, -0.16230982542037964, 0.005437890067696571, 0.053894877433776855, -0.05862080305814743, -0.15708643198013306, 0.024404019117355347, 0.12382414191961288, 0.059039995074272156, 0.027439700439572334, -0.14528873562812805, 0.16755935549736023, 0.23588880896568298, 0.10777241736650467, -0.1666221171617508, 0.07849700003862381, 0.141761913895607, 0.14865320920944214, -0.0334150604903698, -0.023071911185979843, -0.18945534527301788, 0.013469547964632511, 0.025131922215223312, -0.14049790799617767, -0.23406973481178284, -0.12776507437229156, 0.1628463715314865, 0.3783852756023407, 0.34693896770477295, -0.18103483319282532, 0.26975974440574646, 0.33056706190109253, -0.34937575459480286, -0.22850365936756134, -0.21587899327278137, 0.1327286958694458, -0.04665510356426239, -0.1740129590034485, 0.09972786158323288, 0.01234913058578968, 0.03011004999279976, -0.01277406606823206, -0.03693234175443649, 0.11730081588029861, 0.08003859221935272, -0.0488702692091465, 0.07597894966602325, 0.14885053038597107, 0.04444969445466995, -0.16694514453411102, 0.15322303771972656, 0.21513628959655762, -0.051577214151620865, 0.0022502040956169367, -0.19428908824920654, 0.05923337861895561, 0.06143451854586601, 0.03690200671553612, -0.14553320407867432, 0.06444314122200012, 0.10709161311388016, 0.19013582170009613, -0.01102215051651001, -0.06542541086673737, -0.14662301540374756, 0.16119833290576935, 0.1462830752134323, -0.05153626576066017, 0.1293228268623352, 0.0654415562748909, 0.19998358190059662, -0.06665603071451187, 0.010103093460202217, -0.12256529182195663, 0.02699144557118416, 0.024980438873171806, -0.09805803000926971, -0.006075721234083176, 0.011877914890646935, 0.12946677207946777, 0.03972359001636505, -0.14075598120689392, -0.12749381363391876, 0.12235061824321747, -0.031566791236400604, -0.09576895087957382, 0.08981424570083618, 0.05670415237545967, 0.0199037566781044, -0.020924214273691177, -0.026704659685492516, -0.0965580865740776, -0.17231439054012299, -0.06161820515990257, -0.06540084630250931, 0.023632671684026718, 0.12192809581756592, 0.18667779862880707, 0.36586421728134155, 0.24031026661396027, 0.29113641381263733, 0.1587315797805786, 0.3191143870353699, 0.322660893201828, 0.03744962066411972, 0.1545751392841339, 0.20983803272247314], "conv2.bias": [-0.05218682810664177, -0.0038521073292940855, -0.0157900620251894, -0.04400631785392761, 0.08164028823375702, 0.08811045438051224, -0.04341217130422592, 0.09954814612865448, 0.10771112143993378, 0.0010848052334040403, 0.04785500466823578, 0.04362202435731888, 0.04767296090722084, -0.1495961844921112, -0.026207730174064636, -0.16619817912578583], "fc1.weight": [-0.01980575919151306, 0.021852221339941025, -0.01922917552292347, -0.039784472435712814, -0.008788526989519596, 0.011316994205117226, 0.010864563286304474, 0.013803817331790924, -0.017239952459931374, -0.0034726113080978394, 0.01795334741473198, 0.004673708695918322, -0.018284611403942108, -0.0030840914696455, -0.029142893850803375, -0.03786874935030937, -0.00959895458072424, -0.041638392955064774, 0.025823377072811127, -0.027018263936042786, -0.012134312652051449, 0.01997351087629795, -0.035099878907203674, -0.0023118688259273767, 0.017359070479869843, -0.034741420298814774, -0.04123109206557274, -0.020338481292128563, 0.026060692965984344, -0.01186207216233015, -0.014163302257657051, 0.013612338341772556, 0.01903529278934002, 0.002294898498803377, 0.024909257888793945, -0.004526024218648672, 0.007731329649686813, -0.005237743258476257, -0.014819708652794361, 0.014853829517960548, -0.022641299292445183, 0.017094917595386505, -0.005054134875535965, 0.029127756133675575, -0.017161637544631958, -0.03877192735671997, 0.012200930155813694, 0.019649706780910492, -0.005503058433532715, 0.011054359376430511, 0.029382940381765366, -0.02148880809545517, -0.03350457176566124, 0.002581436187028885, -0.020214375108480453, 0.02692083828151226, 0.02026306837797165, -0.002314981073141098, 0.03157850727438927, 0.00026629120111465454, -0.00819513201713562, 0.03241170570254326, -0.0023631039075553417, -0.010836070403456688, 0.01732880249619484, 0.00830590445548296, -0.003279328579083085, 0.02735156938433647, -0.008764922618865967, 0.029568951576948166, 0.009268369525671005, -0.017714347690343857, 0.029631856828927994, -0.02028094232082367, -0.010441670194268227, -0.02553641051054001, 0.022478608414530754, 0.028787735849618912, 0.025406330823898315, -0.011405311524868011, -0.0008384957909584045, -0.011937214992940426, 0.03061160445213318, -0.030440447852015495, -0.015247989445924759, 0.01789380982518196, -0.013639813289046288, 0.0312640406191349, -0.015596984885632992, 0.013663776218891144, 0.013399394229054451, -0.024600017815828323, -0.023166585713624954, 0.028644684702157974, -0.014974737539887428, 0.007795505691319704, 0.006378924008458853, 0.025317126885056496, 0.0015414042863994837, 0.008626720868051052, 0.029575102031230927, 0.004882999695837498, 0.011018967255949974, 0.012464790605008602, 0.013943114317953587, -0.02383800782263279, 0.022691350430250168, -0.005854337476193905, -0.004636530298739672, 0.0022584237158298492, 0.02240370213985443, -0.03088291361927986, 0.006706141866743565, -0.010051420889794827, 0.01243081595748663, -0.023540759459137917, -0.0289677195250988, -0.020894397050142288, 0.003485801862552762, 0.014892161823809147, -0.0247635580599308, 0.02422134205698967, 0.01890622079372406, -0.011291994713246822, 0.011441651731729507, -0.005023688543587923, 0.002206535544246435, -0.016009602695703506, -0.017686836421489716, -0.030024763196706772, 0.03464137017726898, -0.0354800820350647, -0.010473309084773064, -0.02061541937291622, -0.0036352165043354034, -0.009115309454500675, -0.019345490261912346, 0.025156676769256592, -0.01804947853088379, 0.029254863038659096, -0.005385878961533308, 0.009157177060842514, -0.0020224228501319885, 0.03287750110030174, 0.0003745369613170624, -0.012123608961701393, -0.028400318697094917, -0.006109446287155151, -0.012997640296816826, -0.004217479377985001, 0.033204492181539536, -0.023168891668319702, -0.03532431647181511, -0.000268545001745224, -0.030496463179588318, 0.01936475932598114, 0.010288853198289871, 0.001321554183959961, -0.013203637674450874, -0.028387658298015594, 0.010363511741161346, 0.018394559621810913, -0.01880425214767456, 0.017490524798631668, 0.011113323271274567, -0.03148545324802399, -0.013858288526535034, 0.027090612798929214, -0.03405104950070381, 0.00029796361923217773, 0.0345337949693203, 0.018343232572078705, -0.008171044290065765, 0.029675763100385666, 0.001333393156528473, 0.01643998920917511, 0.017204124480485916, -0.02741752564907074, -0.031255707144737244, 0.032356467097997665, 0.03375701233744621, -0.011072129011154175, -0.030747201293706894, 0.015295557677745819, 0.005552608519792557, -0.006590345874428749, -0.019462186843156815, -0.029549237340688705, -0.00026008859276771545, -0.016332656145095825, 0.025444630533456802, -0.0067442189902067184, -0.014681054279208183, 0.03503888472914696, 0.03145084157586098, 0.029022421687841415, 0.018545188009738922, -0.0028519209008663893, 0.010490492917597294, 0.007861089892685413, 0.016796419396996498, 0.01847315952181816, -0.026862910017371178, -0.015229168348014355, -0.03293881192803383, 0.02849256619811058, -0.011451363563537598, 0.016629492864012718, -0.020672764629125595, -0.016261814162135124, 0.00989507231861353, 9.920552838593721e-05, -0.02977253869175911, -0.02614421583712101, -0.011697283014655113, 0.0029758766759186983, -0.029343828558921814, -0.024364549666643143, -0.028634043410420418, -0.02832183614373207, -0.03486984595656395, -0.008696298114955425, -0.02438775822520256, 0.014927307143807411, -0.02162078209221363, 0.04081694409251213, 0.01674799621105194, 0.0054233260452747345, 0.006230820436030626, 0.019472263753414154, -0.011791837401688099, 0.011660181917250156, -0.03706105798482895, -0.021832315251231194, -0.01844136230647564, 0.002603918081149459, 0.01727856881916523, -0.04076245054602623, -0.03298484906554222, 0.02021181769669056, -0.03624727204442024, -0.027147477492690086, 0.010290714912116528, -0.02394206076860428, 0.02700439654290676, -0.021011769771575928, 0.029468629509210587, -0.012707212939858437, 0.006908798590302467, -0.006733823101967573, -0.017863163724541664, -0.02633132040500641, -0.03261232748627663, -0.028848690912127495, -0.02096385881304741, -0.004250955302268267, 0.014045802876353264, 0.0058473264798521996, 0.030931776389479637, -0.010496607981622219, 0.01782529056072235, 0.019007064402103424, -0.005375849083065987, -0.02936287596821785, -0.018569666892290115, 0.028116803616285324, 0.004190413746982813, -0.018817327916622162, 0.007811433169990778, -0.034355416893959045, 0.016250506043434143, 0.015638694167137146, 0.007333403453230858, -0.009646710939705372, -0.00562385655939579, 0.006153427064418793, -0.03594822436571121, 0.016822930425405502, -0.013737274333834648, 0.03191683068871498, -0.014717020094394684, -0.019625674933195114, 0.0010578334331512451, -0.03560473397374153, -0.015203600749373436, -0.03436129167675972, 0.014683009125292301, -0.03196006640791893, -0.02277483604848385, -0.01750863716006279, -0.02183518558740616, -0.00599981052801013, -0.005045879166573286, -0.02571660280227661, 0.025692980736494064, 0.017844364047050476, 0.019625212997198105, -0.023212766274809837, -0.01349196769297123, -0.006353199481964111, -0.0037829354405403137, -0.017590416595339775, 0.028072718530893326, 0.008487250655889511, 0.024095673114061356, -0.007404360920190811, 0.005875075235962868, -0.014601388946175575, 0.016302045434713364, 0.01649821177124977, -0.0043695345520973206, -0.013375941663980484, -0.035571061074733734, -0.025941768661141396, 0.001863769255578518, -0.018241483718156815, 0.009681489318609238, 0.019221359863877296, -0.04066788777709007, -0.01214107871055603, -0.022110603749752045, 0.015674250200390816, 0.019142795354127884, -0.028902161866426468, -0.03510706499218941, 0.016743162646889687, -0.015924585983157158, 0.017395220696926117, 0.021584616973996162, 0.012876741588115692, -0.02003798820078373, -0.016958778724074364, 0.028496045619249344, -0.036004915833473206, 0.01625286601483822, -0.0012716613709926605, 0.014982163906097412, 0.010004423558712006, -0.002911090850830078, -0.027586452662944794, 0.001959938555955887, -0.01714262180030346, -0.029143836349248886, -0.0014937003143131733, 0.004986066371202469, -0.0032976195216178894, -0.006878627464175224, 0.016232497990131378, -0.020296689122915268, -0.025790967047214508, 0.016396762803196907, -0.011899077333509922, 0.003891151398420334, 0.024553898721933365, -0.029382148757576942, 0.020692262798547745, -0.016135970130562782, -0.03251372277736664, -0.035054661333560944, 0.012437261641025543, -0.03378112614154816, 0.005788555834442377, 0.014862447045743465, -0.004310206510126591, -0.011456489562988281, -0.01954595558345318, 0.022998999804258347, -0.02555616945028305, 0.011682301759719849, 0.023314550518989563, 0.029345298185944557, -0.006036244798451662, 0.009715915657579899, -0.015828784555196762, -0.004589501768350601, -0.01936575397849083, 0.023198364302515984, 0.026533979922533035, -0.0010717202676460147, -0.02419351600110531, -0.02512768842279911, -0.029134610667824745, 0.018086887896060944, 0.019700363278388977, -0.03957122936844826, 0.012026344425976276, -0.023872973397374153, -0.033516380935907364, -0.033878255635499954, -0.007998554967343807, -0.023532461374998093, -0.038461022078990936, 0.009429278783500195, -0.002577640116214752, -0.035666875541210175, 0.033836718648672104, 0.004276517778635025, -0.034502238035202026, 0.019246680662035942, -0.02420489676296711, -0.033038150519132614, 0.034507181495428085, -0.020193397998809814, 0.009241081774234772, -0.0036060214042663574, 0.014024537988007069, -0.03770579397678375, 0.021885570138692856, -0.012118110433220863, -0.0014275908470153809, 0.003099944442510605, -0.00814916379749775, -0.02771582268178463, 0.023979779332876205, -0.0038212351500988007, -0.02333827316761017, 0.03333691880106926, -0.00533696636557579, 0.01820017397403717, -0.028031373396515846, -0.004180613439530134, -0.007837295532226562, -0.02070680819451809, 0.023835361003875732, -0.016720427200198174, 0.005222532898187637, -0.008123050443828106, 0.0031246007420122623, -0.007078349590301514, -0.01045413501560688, -0.024933263659477234, 0.023301366716623306, -0.010849587619304657, 0.021141136065125465, -0.002619077218696475, -0.03707155957818031, -0.039609089493751526, -0.02276778407394886, -0.02613740786910057, 0.019558118656277657, -0.013318831101059914, 0.016840307042002678, 0.02001330815255642, -0.02401559427380562, 0.007965316995978355, -0.02170165255665779, -0.008056308142840862, -0.013415521010756493, 0.017949804663658142, 0.02702045813202858, 0.022123489528894424, 0.0018874965608119965, 0.03296787664294243, -0.02681688405573368, -0.016329586505889893, 0.006198490969836712, -0.004806123673915863, 0.01749611645936966, 0.008891092613339424, 0.011815272271633148, -0.012700136750936508, -0.015820132568478584, -0.031762052327394485, 0.007206734269857407, 0.016692806035280228, -0.008057236671447754, 0.023921113461256027, 0.01791396737098694, 0.001531604677438736, -0.0061846571043133736, -0.022459790110588074, 0.017757050693035126, 0.0107220858335495, 0.021907109767198563, -0.021807372570037842, -0.02039506658911705, -0.005927263293415308, -0.007530735805630684, -0.01873592473566532, 0.02089017629623413, 0.0033015869557857513, -0.0029313787817955017, 0.015337727963924408, 0.014220212586224079, 0.005466712638735771, -0.0007141364039853215, 0.02676832675933838, -0.016475636512041092, -0.03224129229784012, -0.027066651731729507, 0.01913277804851532, -0.011782861314713955, -0.012443148531019688, 0.003413771977648139, -0.004287359304726124, -0.022791393101215363, -0.036302775144577026, -0.029308179393410683, -0.002637706696987152, 0.008769679814577103, -0.038390494883060455, -0.01824873313307762, 0.02672852762043476, -0.029273705556988716, 0.007697189226746559, 0.019054733216762543, 0.004366195295006037, -0.009541919454932213, 0.014767758548259735, -0.02046225219964981, 0.016564108431339264, 0.013444872573018074, -0.026677299290895462, -0.03167567402124405, -0.03545525297522545, 0.01809561438858509, -0.0004134998598601669, 0.01964295096695423, 0.001621832954697311, 0.030765412375330925, 0.010673017241060734, -0.02230885811150074, 0.011057944037020206, -0.028885845094919205, 0.0022848276421427727, -0.007726798765361309, -0.018471522256731987, -0.020573144778609276, -0.007200642488896847, 0.005370475351810455, -0.013701964169740677, 0.0015776128275319934, 0.022646866738796234, -0.00032632870716042817, -0.015198453329503536, 0.01629786193370819, 0.009496163576841354, -0.024421095848083496, -0.008606540970504284, -0.015065964311361313, 0.03490602597594261, 0.027986984699964523, 0.03004956617951393, 0.015746619552373886, 0.013970389030873775, 0.001587585429660976, 0.02122175320982933, -0.013385913334786892, -0.026512185111641884, -0.002794215688481927, 0.01583910919725895, -0.04098980128765106, -0.00044967044959776103, -0.03252733498811722, 0.015831436961889267, -0.015627706423401833, -0.03698847442865372, -0.005157850682735443, 0.0013316940749064088, -0.013522839173674583, -0.003377016633749008, 0.00839659571647644, 0.012837855145335197, -0.018000159412622452, 0.013818733394145966, -0.03922082111239433, -0.02531610056757927, 0.03117421641945839, -0.014174407348036766, -0.010778218507766724, 0.005708012729883194, -0.024104969576001167, 0.025759244337677956, -0.00912640430033207, 0.015589900314807892, -0.010963854379951954, -0.019709192216396332, -0.033610716462135315, -0.00787666067481041, -0.0003997590683866292, -0.022430922836065292, 0.00010948531416943297, 0.0017002345994114876, -0.03982200473546982, 0.009897811338305473, -0.025478990748524666, -0.03333493694663048, -0.0160086490213871, 0.021893542259931564, 0.00960538536310196, -0.03424180671572685, 0.03140288218855858, 0.009478505700826645, -0.0033994652330875397, -0.03966015204787254, 0.033649783581495285, 0.034604500979185104, -0.007158211898058653, -0.008323384448885918, 0.002815037965774536, -0.020024117082357407, -0.004863040056079626, -0.016133824363350868, -0.023482520133256912, 0.007945168763399124, 0.011171187274158001, -0.022839590907096863, -0.022138655185699463, 0.028539806604385376, 0.03524461016058922, 0.033426154404878616, 0.023144757375121117, 0.03399287536740303, -0.014747152104973793, -0.008301157504320145, -0.008594164624810219, -0.009655170142650604, 0.0072703068144619465, -0.016607489436864853, 0.015184599906206131, 0.027219321578741074, 0.0021323896944522858, -0.026494281366467476, -0.02738995850086212, -0.025235027074813843, -0.009835239499807358, 0.015140488743782043, 0.02285139262676239, -0.02933233603835106, -0.01844080537557602, 0.010702456347644329, -0.016729602590203285, 0.029710980132222176, 0.011614563874900341, -0.02768585830926895, 0.01190347783267498, 0.015920352190732956, -0.016457892954349518, -0.013114677742123604, 0.01748659834265709, -0.016553929075598717, 0.010557780042290688, -0.03891948238015175, -0.03336703032255173, 0.010262198746204376, 0.014060016721487045, 0.02058824896812439, -0.024254903197288513, -0.016786698251962662, 0.008146487176418304, -0.02081344649195671, 0.024629661813378334, -0.012691546231508255, -0.025296270847320557, -0.017276832833886147, -0.036793239414691925, -0.012869714759290218, -0.02637338824570179, 0.01811523176729679, 0.02102014794945717, 0.018983151763677597, -0.028049908578395844, -0.015838608145713806, -0.030355768278241158, -0.02430349588394165, 0.027690738439559937, -0.010624552145600319, -0.002858706284314394, -0.02169165387749672, -0.015310647897422314, -0.03317033499479294, -0.012380596250295639, 0.02909613773226738, -0.025391656905412674, -0.025556180626153946, 0.026781709864735603, -0.026014231145381927, -0.031573209911584854, 0.00378301739692688, 0.006893333047628403, 0.01736634410917759, -0.03478076308965683, -0.028943249955773354, 0.0014410912990570068, -0.023662380874156952, -0.03480764850974083, -0.0019475780427455902, 0.013025067746639252, 0.008159399032592773, -0.030999423936009407, -0.013444041833281517, -0.0018985569477081299, 0.004672594368457794, -0.023465877398848534, -0.010367505252361298, -0.023810341954231262, -0.011147703975439072, -0.033950693905353546, 0.027565982192754745, 0.019678059965372086, -0.023372557014226913, 0.007981482893228531, 0.015861477702856064, -0.0178106389939785, 0.014026936143636703, 0.01739269122481346, 0.013617314398288727, -0.010820044204592705, 0.011178895831108093, -0.029238322749733925, 0.024744976311922073, -0.003984667360782623, 0.01186123862862587, 0.024178549647331238, 0.008113890886306763, 0.025846675038337708, -0.020994950085878372, -0.012636018916964531, 0.0073899999260902405, -0.006623324006795883, -0.03413953259587288, -0.024818306788802147, -0.01074763759970665, 0.026427004486322403, 0.008093345910310745, 0.022641047835350037, -0.011879503726959229, -0.02829611487686634, 0.020497851073741913, 0.010031573474407196, -0.008094575256109238, -0.011326275765895844, -0.0006582252681255341, -0.0029641129076480865, 0.00815751776099205, 0.006411746144294739, 0.003718622727319598, 0.011050287634134293, -0.011964187026023865, -0.00615059956908226, 0.020427260547876358, -0.03471686318516731, 0.022747978568077087, -0.006370497867465019, -0.000633804767858237, -0.03149333968758583, -0.033865004777908325, 0.010090661235153675, -0.0017929774476215243, -0.03199596330523491, -0.01582275703549385, -0.010672656819224358, 0.012360402382910252, 0.008859421126544476, 0.016691645607352257, -0.017125414684414864, -0.03540976345539093, -0.011477641761302948, 0.015694281086325645, -0.020460408180952072, -0.009581302292644978, 0.02748655155301094, -0.03278493881225586, -0.020334411412477493, 0.016432765871286392, 0.020218323916196823, 0.0027527695056051016, -0.0354086272418499, 0.0172071922570467, 0.03567543998360634, 0.024421721696853638, 0.031206931918859482, -0.01930841989815235, 0.009910515509545803, 0.01669764705002308, -0.02675466798245907, -0.014671312645077705, 0.020578235387802124, 0.004129324108362198, -0.009623371064662933, 0.026949670165777206, 0.01411566510796547, -0.0005138218402862549, 0.034532684832811356, -0.030704447999596596, -0.006276160012930632, -0.0036695837043225765, -0.03351183608174324, -0.0029784527141600847, 0.03435017168521881, 0.007631591055542231, -0.02918069250881672, -0.028300033882260323, -0.03976394981145859, 0.001328779966570437, 0.019477058202028275, -0.03866138681769371, 0.001244494691491127, 0.008154790848493576, -0.03233448788523674, -0.005831614136695862, 0.027793876826763153, 0.00680851936340332, 0.030223587527871132, -0.024193905293941498, 0.005558634642511606, -0.0091351717710495, 0.019421732053160667, -0.00045774143654853106, 0.018711553886532784, 0.009339970536530018, -0.04122608155012131, -0.01956634223461151, 0.0065093575976789, -0.038401372730731964, -0.022490980103611946, -0.023338759317994118, 0.0016972699668258429, -0.0303567573428154, -6.631877477047965e-05, -0.039881110191345215, -0.026937713846564293, -0.0403595045208931, -0.017923226580023766, 0.03856944292783737, 0.005320305936038494, -0.026248402893543243, -0.036218468099832535, 0.00617727218195796, -0.026122745126485825, 0.02113225683569908, -0.026548156514763832, -0.02527308091521263, 0.0031792756635695696, 0.030864495784044266, -0.01595400832593441, -0.006470241118222475, 0.013538755476474762, 0.02498309127986431, -0.006295159459114075, -0.02278805524110794, -0.021345971152186394, 0.027870986610651016, -0.009619996882975101, -0.030278895050287247, -8.128712215693668e-05, 0.008066362701356411, -0.026916850358247757, 0.02590242214500904, -0.03290732204914093, 0.007184811867773533, -0.023372488096356392, -0.028195908293128014, -0.019985398277640343, 0.0014222065219655633, -0.017329471185803413, -0.001943245530128479, -0.02726694941520691, 0.03216118365526199, -0.030955079942941666, -0.039676733314991, -0.021551376208662987, 0.0023467373102903366, -0.02228562906384468, -0.007915113121271133, 0.0397622287273407, -0.0032936129719018936, -0.03490764647722244, 0.015207594260573387, 0.0070198895409703255, -0.013270444236695766, 0.0258126612752676, -0.0003409241617191583, -0.011418298818171024, -0.0173235721886158, -0.01790596731007099, 0.027616029605269432, -0.010215900838375092, -0.022028369829058647, -0.01981804333627224, 0.01373625360429287, 0.016246633604168892, 0.013021144084632397, 0.01681170053780079, -0.024474885314702988, -0.0394965261220932, -0.0027870344929397106, -0.03161733224987984, 0.02329813688993454, -0.013344427570700645, -0.031712234020233154, 0.016509663313627243, 0.029792025685310364, 0.011801826767623425, 0.0029847368132323027, 0.031933605670928955, 0.024806266650557518, -0.03095264360308647, -0.02207205630838871, 0.02385295182466507, -0.006125509273260832, -0.024046923965215683, -0.017422717064619064, -0.030526479706168175, 0.012190094217658043, -0.012065919116139412, -0.0353890098631382, 0.017987901344895363, -0.011251254007220268, -0.03019881807267666, 0.01686226949095726, 0.019502706825733185, 0.01947147771716118, 0.019372286275029182, -0.02857828140258789, -0.039183348417282104, 0.009787485003471375, 0.019954293966293335, -0.04193912073969841, 0.004646700341254473, -0.0028971314895898104, -0.026634644716978073, -0.027066342532634735, -0.008691122755408287, -3.159915286232717e-05, -0.01517502497881651, 0.001858219737187028, 0.016725480556488037, 0.018383443355560303, -0.002617425750941038, 0.0016509988345205784, -0.024463467299938202, 0.01613670215010643, -0.019204890355467796, 0.022453930228948593, 0.011245295405387878, -0.0013838894665241241, -0.0048967693001031876, 0.019314225763082504, 0.014880593866109848, 0.033545296639204025, -0.01952279917895794, -0.024089017882943153, 0.0013539083302021027, -0.0052713025361299515, -0.03385037183761597, -0.003388352692127228, -0.017297472804784775, -0.013648098334670067, 0.009665854275226593, -0.01202426664531231, 0.009478021413087845, -0.0321476124227047, 0.006197646260261536, 0.008105400949716568, 0.0012899301946163177, -0.013406753540039062, -0.017420973628759384, -0.010961081832647324, -0.01408798061311245, -0.0198364220559597, -0.023221135139465332, -0.018675750121474266, -0.006830539554357529, 0.014325997792184353, 0.008939746767282486, 0.004620041698217392, 0.017748497426509857, 0.021754171699285507, 0.030347537249326706, 0.007485218346118927, -0.024864844977855682, 0.015978090465068817, -0.010307550430297852, -0.017840851098299026, 0.012869954109191895, 0.004271816462278366, -0.027042007073760033, 0.020303450524806976, -0.02807246893644333, 0.014199525117874146, -0.030456312000751495, 0.012001929804682732, -0.03563949838280678, 0.018600549548864365, 0.021361764520406723, -0.012827292084693909, -0.0351073183119297, -0.005466694012284279, -0.009342469274997711, 0.010424531996250153, -0.0042215087451040745, -0.03171122446656227, -0.008603915572166443, 0.018139172345399857, -0.03473608195781708, -0.0008126171305775642, -0.04267518222332001, 0.007559768855571747, -0.0004271999350748956, 0.015834752470254898, 0.0056381444446742535, -0.03482341766357422, 0.01968223787844181, -0.013529496267437935, 0.023483265191316605, -0.027581432834267616, 0.003524253610521555, 0.013553107157349586, -0.0015431562205776572, 0.004508058074861765, 0.024429675191640854, -0.027725985273718834, 0.00031371673685498536, -0.014446718618273735, -0.012813227251172066, 0.026632102206349373, -0.0007320883451029658, -0.008801731280982494, -0.02396836318075657, 0.02707054652273655, -0.01591023989021778, -0.0036710426211357117, 0.0074503724463284016, -0.006971445400267839, -0.015028828755021095, 0.008294240571558475, -0.008791175670921803, 0.02583039365708828, 0.02903549186885357, -0.021674659103155136, 0.017455024644732475, -0.03081560507416725, 0.002446844708174467, 0.020605405792593956, -0.006794544868171215, 0.013186987489461899, 0.00010629079770296812, 0.017299512401223183, 0.024366183206439018, -0.02567882277071476, -0.028326161205768585, -0.031056972220540047, -0.031494881957769394, -0.026720650494098663, -0.01771855726838112, -0.012561341747641563, 0.01837771385908127, -0.03520718216896057, -0.034966107457876205, -0.019303906708955765, -0.02547611854970455, 0.007722205948084593, -0.012120089493691921, 0.031121164560317993, -0.030734913423657417, -0.005918974056839943, -0.017591319978237152, 0.015002742409706116, 0.014935199171304703, -0.01886346936225891, 0.022178348153829575, -0.03399401158094406, 0.008033969439566135, 0.02374557964503765, -0.012822127901017666, -0.015162263996899128, -0.03557217866182327, 0.03291631489992142, -0.017083508893847466, 0.02542019635438919, -0.03857125714421272, -0.007081289775669575, 0.010744267143309116, -0.01278037577867508, -0.03555382043123245, 0.0013287909096106887, 0.004305163864046335, 0.0007448792457580566, -0.0038909614086151123, 0.025959566235542297, -0.021595364436507225, 0.029770627617836, 0.023121388629078865, -0.027760397642850876, 0.010253772139549255, 0.016511961817741394, -0.012350582517683506, -0.031121762469410896, -0.018108533695340157, 0.011125567369163036, -0.03669944033026695, 0.02172093093395233, -0.01695493422448635, -0.010541999712586403, 0.006412103772163391, 0.01633327640593052, 0.017686035484075546, -0.034869998693466187, 0.012839965522289276, 0.028176885098218918, -0.01539518591016531, -0.02546733431518078, -0.008956112898886204, -0.025892654433846474, 0.0231095552444458, 0.014651164412498474, -0.0091900285333395, -0.012163578532636166, 0.04073420912027359, 0.015921659767627716, -0.03548752889037132, -0.01256821770220995, 0.025124341249465942, -0.03507789224386215, 0.015918133780360222, 0.03046947531402111, -0.024892302230000496, -0.014967936091125011, 0.01841014437377453, 0.015575982630252838, -0.024068275466561317, -0.02102871611714363, 0.019948109984397888, 0.0006246817647479475, -0.011455361731350422, -0.025887347757816315, -0.010838058777153492, -0.038765862584114075, -0.024503983557224274, 0.025690440088510513, -0.03514327481389046, 0.02995217964053154, -0.0077942791394889355, 0.015692494809627533, -0.0322335809469223, -0.02181084454059601, -0.022825326770544052, 0.007210906594991684, 0.0031095773447304964, 0.021152596920728683, -0.04142366349697113, -0.009707656688988209, -0.027921294793486595, 0.028606511652469635, -0.011783638037741184, 0.03302519768476486, -0.022345704957842827, -0.014733401127159595, 0.00630731787532568, -0.023752998560667038, 0.0017705796053633094, -0.018821993842720985, -0.029524410143494606, -0.023546861484646797, 0.0006997634773142636, 0.027726449072360992, -0.03784717246890068, -0.0009547222871333361, 0.00143011927139014, -0.03655634820461273, 0.009264525026082993, -0.03870202973484993, -0.0263679139316082, -0.03238736838102341, -0.007880639284849167, 0.02080344222486019, 0.034694086760282516, 0.03261326998472214, 0.01696012355387211, 0.006519328337162733, -0.022840099409222603, -0.011846267618238926, -0.04149152711033821, 0.01864122785627842, -0.014814326539635658, -0.011189693585038185, -0.01230640895664692, 0.024685971438884735, -0.01206805557012558, -0.0032499507069587708, -0.029689760878682137, -0.03283518925309181, -0.029645711183547974, 0.030620332807302475, -0.011373912915587425, 0.005514949560165405, -0.001100093126296997, -0.025340288877487183, -0.006531957536935806, -0.0333426408469677, 0.01616668328642845, 0.0018720515072345734, 0.021609894931316376, -0.032685574144124985, 0.03126625344157219, -0.008048477582633495, 0.01552602555602789, 0.02210867404937744, 0.01144891232252121, 0.007123902440071106, 0.015790805220603943, 0.008400257676839828, 0.030052144080400467, 0.014387847855687141, -0.0174166988581419, -0.014895422384142876, 0.03165679797530174, -0.024011587724089622, -0.007073666900396347, 0.025110023096203804, 0.0253068208694458, 0.022184234112501144, -0.031428612768650055, 0.02004849538207054, 0.029197122901678085, 0.017785463482141495, -0.010007659904658794, 0.0024711680598556995, 0.004732029978185892, 0.026039762422442436, -0.023301025852560997, -0.012283582240343094, 0.014325140975415707, 0.026733215898275375, 0.017019521445035934, -0.016784625127911568, 0.028609149158000946, -0.011601517908275127, -0.029359934851527214, 0.01657424122095108, 0.015058471821248531, 0.010642936453223228, -0.008584030903875828, -0.009761563502252102, -0.012550597079098225, -0.019029349088668823, 0.016553310677409172, -0.01827036589384079, -0.014626797288656235, -0.00020267140644136816, 0.02705502323806286, 0.024517903104424477, 0.010403498075902462, -0.023128803819417953, 0.015322757884860039, -0.0330372154712677, -0.011424195021390915, -0.03303847089409828, 0.03584660589694977, -0.019293390214443207, -0.018352827057242393, -0.0029875473119318485, 0.009820870123803616, 0.01047943253070116, -0.04198265075683594, 0.006015653256326914, 0.029868803918361664, -0.026896214112639427, -0.01395535096526146, -0.014638448134064674, -0.038170475512742996, 0.018458297476172447, 0.04032624885439873, -0.010834727436304092, 0.02067728340625763, 0.02757469192147255, -0.01982220634818077, 0.037011414766311646, -0.019987348467111588, -0.03882569074630737, 0.014396945014595985, -0.0174018032848835, -0.004712555091828108, -0.0059525324031710625, 0.01737532764673233, -0.028196953237056732, -0.0332215242087841, 0.01899077370762825, 0.005165223963558674, -0.019664369523525238, 0.022660499438643456, 0.005302400793880224, -0.0338740274310112, -0.02906954474747181, -0.03318307176232338, 0.018612580373883247, -0.03722667694091797, -0.028081070631742477, -0.007435509469360113, 0.014042778871953487, -0.034395139664411545, 0.0026909508742392063, 0.014308604411780834, -0.03329993784427643, 0.011465949937701225, -0.03703565150499344, -0.009160363115370274, -0.007110006175935268, -0.00556391105055809, 0.00776900677010417, -0.033340923488140106, 0.017156681045889854, -0.01145908236503601, 0.02399904653429985, 0.016725918278098106, 0.005560668651014566, -0.0038863164372742176, -0.024956990033388138, 0.024269580841064453, -0.029313402250409126, -0.003937914036214352, -0.00692126527428627, -0.030877526849508286, -0.006651765666902065, 0.014758755452930927, 0.0063963383436203, 0.01894303783774376, 0.0015432654181495309, -0.036495596170425415, -0.005764706991612911, 0.023364078253507614, -0.028516199439764023, 0.012527991086244583, -0.02819446474313736, 0.004610963631421328, -0.00642459886148572, -0.02543114870786667, 0.03742486238479614, 0.01616332121193409, 0.017903346568346024, 0.0362493097782135, -0.009096302092075348, 0.004576059523969889, 0.029752090573310852, 0.005786716006696224, -0.0077699217945337296, -0.016112273558974266, -0.018486661836504936, 0.011585359461605549, -0.03580322489142418, -0.019887996837496758, 0.010219389572739601, -0.018088772892951965, -0.00011089942563557997, -0.01882796734571457, -0.0035250759683549404, -0.022826341912150383, -0.014142009429633617, 0.015956521034240723, 0.01707725040614605, -0.018656834959983826, -0.013626298867166042, -0.023834528401494026, -0.007556296419352293, 0.004417594522237778, 0.013337146490812302, 0.009958616457879543, -0.009304311126470566, 0.028281914070248604, -0.007790164090692997, 0.016884002834558487, -0.005967206787317991, -0.011362540535628796, 0.002351568080484867, 0.023662220686674118, -0.017304465174674988, -0.023456791415810585, -0.016411958262324333, -0.01382010243833065, -0.0022352507803589106, 0.026624416932463646, -0.02280159667134285, -0.034106433391571045, -0.0069485995918512344, -0.024938153102993965, -0.022325461730360985, -0.02555607073009014, -0.01632114313542843, 0.030378643423318863, 0.01131204143166542, 0.0018597766757011414, 0.010118868201971054, -0.016428180038928986, -0.007836101576685905, -0.03627210482954979, -0.034596338868141174, -0.029796816408634186, 0.02499380335211754, -0.010223733261227608, -0.013204075396060944, -0.024293899536132812, 0.00037615836481563747, -0.017378289252519608, -0.015461358241736889, -0.0035347172524780035, 0.03197487071156502, 0.024460643529891968, -0.025568882003426552, -0.009376530535519123, 0.01005614548921585, 0.0243013147264719, -0.02387704886496067, -0.00863012857735157, -6.594809747184627e-06, -0.005507669877260923, 0.012448830530047417, 0.028003541752696037, 0.007104781921952963, -0.0071365381591022015, -0.02759082429111004, -0.012580286711454391, -0.025859428569674492, 0.015631912276148796, 0.003759231651201844, -0.0273973997682333, -0.004882220644503832, -0.007172508165240288, -0.027125893160700798, 0.01134811993688345, -0.031356245279312134, -0.0419994555413723, 0.014470514841377735, 0.02267317660152912, 0.03875907510519028, -0.02692156843841076, -0.02305031754076481, 0.03443262726068497, 0.027132732793688774, 0.024532318115234375, -0.04267497360706329, -0.003010359825566411, -0.007838861085474491, 0.015451675280928612, -0.027263013646006584, 0.005507970228791237, 0.004165327176451683, 0.018699079751968384, 0.012522036209702492, 0.021713489666581154, -0.03893107548356056, -0.019702820107340813, -0.025550447404384613, -2.5042130801011808e-05, -0.00030100528965704143, -0.018309015780687332, -0.03273708373308182, -0.019671976566314697, -0.037720296531915665, 0.0006721706013195217, 0.024702303111553192, -0.015668656677007675, 0.013807683251798153, -0.004546504933387041, -0.03543005883693695, -0.024139877408742905, 0.02044791728258133, -0.030071765184402466, -0.01512090116739273, -0.014432433992624283, -0.02237841486930847, -0.014998456463217735, -0.013418844901025295, 0.017879923805594444, 0.01734028570353985, 0.03033609315752983, -0.02165556326508522, 0.02289046347141266, -0.02679484523832798, 0.024230316281318665, 0.0315849669277668, 0.0007223598659038544, -0.003627162426710129, 0.02705637738108635, 0.02270614728331566, 0.015922684222459793, -0.015427649021148682, -0.017687581479549408, 0.006896410137414932, 0.0009523145854473114, 0.01070789247751236, 0.010845281183719635, -0.03127727657556534, -0.017623480409383774, -0.015452463179826736, 0.015784628689289093, 0.03367510810494423, -0.029324239119887352, -0.023274997249245644, -0.02005724050104618, -0.03243749961256981, 0.012853775173425674, -0.025978371500968933, -0.011809609830379486, -0.031076705083251, 0.03476589545607567, -0.034458570182323456, 0.015888560563325882, 0.01700177788734436, -0.035462819039821625, -0.026870276778936386, -0.007769528776407242, -0.03419144079089165, 0.001116674393415451, -0.02757708728313446, -0.029284754768013954, -0.003275066614151001, 0.025987591594457626, 0.008328352123498917, 0.02977559342980385, -0.014174951240420341, 0.033549319952726364, -0.02659725770354271, 0.009877089411020279, 0.015189416706562042, 0.007043872028589249, 0.03244831785559654, 0.032937537878751755, -0.027074426412582397, 0.0285878237336874, -0.02478448860347271, 0.024898437783122063, -0.04204602167010307, -0.03653692081570625, 0.016811374574899673, -0.0219876766204834, 0.03802652284502983, 0.020539995282888412, 0.004670948255807161, -0.04058694466948509, 0.015432442538440228, 0.0058777243830263615, 0.003366264747455716, -0.020532473921775818, -0.0038598442915827036, -0.004014337435364723, -0.022596480324864388, 0.011239225044846535, 0.00785667635500431, 0.009998382069170475, 0.01328648068010807, -0.007625233847647905, -0.02258545346558094, -0.01589122973382473, -0.011550885625183582, -0.03829824551939964, 0.010814634151756763, 0.009383115917444229, -0.011028701439499855, 0.008700067177414894, -0.013221354223787785, 0.025987980887293816, -0.009585665538907051, 0.026965109631419182, -0.017689406871795654, -0.0173527542501688, -3.078925146837719e-05, -0.01505250670015812, 0.012479365803301334, 0.019292103126645088, -0.022028764709830284, 0.01766820251941681, -0.009785817936062813, 0.02422332391142845, 0.004555618390440941, -0.030676431953907013, -0.007818027399480343, 0.012066472321748734, 0.016828330233693123, -0.03819570317864418, 0.013431382365524769, 0.018074844032526016, 0.019971385598182678, 0.0435795933008194, -0.007238826248794794, -0.013269077986478806, -0.035294901579618454, -0.029574893414974213, 0.021209387108683586, 0.03237466141581535, 0.0031927740201354027, 0.020997852087020874, -0.044139888137578964, -0.007517374586313963, 0.041509173810482025, 0.047066375613212585, 0.008849309757351875, -0.013331669382750988, 0.03369051218032837, -0.028887229040265083, -0.03108401969075203, 0.01618807762861252, 0.03983600437641144, 0.0013532262528315187, -0.07301921397447586, -0.02286575175821781, -0.02515963837504387, -0.025287417694926262, 0.026503030210733414, -0.004156804643571377, -0.07266591489315033, -0.04795784875750542, -0.04244522377848625, -0.048474717885255814, 0.015176963992416859, -0.020157521590590477, 0.005855564493685961, 0.015353596769273281, 0.00867406651377678, -0.012292101047933102, 0.0025599016807973385, 0.014636559411883354, 0.032754987478256226, 0.0749320313334465, 0.02723812125623226, 0.012425735592842102, -0.00047846109373494983, 0.019937900826334953, 0.06704523414373398, 0.021395472809672356, 0.04990081861615181, 0.06490080058574677, 0.0636420026421547, 0.03266331925988197, 0.011843213811516762, -0.01117921993136406, 0.024520663544535637, 0.009021356701850891, 0.10533212125301361, 0.05911297723650932, -0.004505067132413387, -0.008932377211749554, 0.0025289529003202915, -0.07245749980211258, -0.09875667095184326, -0.007246352266520262, -0.03285382315516472, 0.03933539614081383, 0.004271000158041716, -0.05980433151125908, -0.13140234351158142, 0.054968900978565216, -0.029111558571457863, -0.09117763489484787, -0.00850796326994896, 0.03753075376152992, -0.02151239849627018, -0.008298679254949093, 0.0016891347477212548, -0.12559713423252106, -0.10174842178821564, -0.004652546718716621, -0.004990934394299984, 0.012223517522215843, -0.04546992480754852, 0.03442208096385002, 0.1075432226061821, 0.03877778351306915, 5.776167745352723e-05, 0.004152252804487944, -0.03409358114004135, 0.0027893646620213985, -0.0077641610987484455, 0.06974151730537415, 0.042716946452856064, 0.04301305115222931, 0.05449383705854416, 0.03319501504302025, -0.0029412233270704746, 0.02217264659702778, 0.07299517840147018, 0.032869476824998856, 0.06477233022451401, 0.0008170449873432517, 0.02824041061103344, -0.022585446015000343, -0.024959856644272804, -0.0038256694097071886, -0.002875239122658968, 0.05974951013922691, -0.03883548453450203, -0.09173059463500977, -0.06962209194898605, -0.031183743849396706, -0.0029712473042309284, 0.0441572368144989, 0.02405615709722042, 0.023893581703305244, -0.04583137109875679, -0.09602835029363632, -0.06010706350207329, -0.06330560892820358, -0.013904118910431862, -0.057961493730545044, 0.05615130066871643, 0.035818956792354584, -0.0046445210464298725, -0.06868806481361389, -0.04132518917322159, -0.0017785093514248729, 0.008623889647424221, 0.01706303283572197, 0.07802954316139221, 0.052564043551683426, -0.009060604497790337, -0.069546639919281, -0.11974363774061203, 0.006988448090851307, 0.045770179480314255, 0.026957502588629723, -0.014817913994193077, -0.0884186401963234, -0.0692480057477951, 0.0324283204972744, 0.02028326690196991, 0.023450151085853577, 0.008844248950481415, 0.014700502157211304, 0.007964570075273514, -0.031072260811924934, 0.011055737733840942, 0.020015224814414978, 0.02905040606856346, 0.03266960009932518, 0.004261963069438934, -0.00033045560121536255, -0.02207634039223194, -0.006217481102794409, 0.015742238610982895, 0.02406880632042885, -0.01613718271255493, -0.009348159655928612, -0.005872905254364014, 0.0060656070709228516, 0.013330154120922089, 0.035698141902685165, 0.014644261449575424, -0.002946101129055023, -0.031471170485019684, -0.022475963458418846, 0.024175792932510376, -0.0034623071551322937, -0.04997241869568825, -0.0021589435636997223, -0.005889415740966797, 0.018752090632915497, 0.021270032972097397, 0.02297520451247692, 0.021125735715031624, 0.01667001098394394, -0.017382372170686722, 0.0283304862678051, -0.022988801822066307, 0.03311653807759285, 0.020482901483774185, -0.016542606055736542, -0.025352980941534042, 0.008325330913066864, -0.023732364177703857, -0.0101032555103302, -0.030978145077824593, 0.008363768458366394, -0.021195579320192337, -0.0032969750463962555, 0.02366039901971817, 0.01966993696987629, 0.01740308851003647, 0.08783943206071854, 0.06445953994989395, 0.05079973116517067, 0.0470583550632, -0.027694007381796837, 0.007375701330602169, 0.029992686584591866, 0.0743635818362236, -0.005445853341370821, 0.011076971888542175, 0.06058991700410843, 8.91137242433615e-05, 0.0314653255045414, -0.05281657725572586, -0.014818809926509857, 0.03431792929768562, -0.05999334529042244, -0.038148023188114166, -0.025605594739317894, -0.07018627226352692, -0.054755739867687225, -0.12683908641338348, -0.14724408090114594, -0.10862238705158234, -0.03007027879357338, 0.041053637862205505, 0.000644656247459352, 0.04118603095412254, 0.02572372555732727, -0.0038561548572033644, -0.0660361498594284, 0.029943078756332397, 0.020939715206623077, 0.011394592933356762, 0.004749922081828117, 0.08650567382574081, 0.026257803663611412, 0.03389810025691986, 0.005891773849725723, -0.003486711299046874, 0.027380457147955894, 0.00027253228472545743, -0.041385717689991, -0.056277453899383545, 0.03426950424909592, 0.0029970360919833183, -0.009903655387461185, 0.03725992888212204, 0.041380610316991806, 0.03284439072012901, 0.0354447178542614, 0.04227576404809952, -0.006089875008910894, 0.019059697166085243, -0.024978183209896088, -0.0033065255265682936, 0.010766343213617802, 0.05989687517285347, 0.049656450748443604, -0.004821970127522945, -0.03599274903535843, -0.05990534648299217, -0.038648732006549835, -0.0394909493625164, 0.03433961793780327, 0.01854400523006916, 0.03627917915582657, 0.016949383541941643, -0.029854249209165573, -0.0014306321972981095, -0.07220830768346786, 0.022587738931179047, -0.0013998709619045258, -0.03497852757573128, 0.02838682197034359, 0.0827391967177391, 0.03454003855586052, -0.12490598112344742, 0.04805181920528412, 0.06852152198553085, 0.016142288222908974, 0.03771631792187691, 0.08666123449802399, 0.0705476775765419, 0.04384937137365341, -0.05257324501872063, -0.10950882732868195, -0.002605233108624816, 0.011547970585525036, -0.00525403069332242, 0.050882577896118164, 0.007578420452773571, 0.01155499741435051, -0.01465288084000349, 0.023827213793992996, 0.004394931253045797, 0.011126656085252762, 0.13578881323337555, 0.010933058336377144, 0.09614206105470657, 0.0003675708721857518, 0.006918211001902819, 0.014323384501039982, -0.07866697758436203, 0.15886148810386658, 0.0781467854976654, 0.004044196102768183, 0.007834866642951965, -0.08944562077522278, 0.04436749964952469, 0.05075455829501152, 0.14009591937065125, -0.016460513696074486, 0.011491825804114342, -0.057728879153728485, -0.09004247933626175, 0.039849165827035904, -0.03414812684059143, -0.029252734035253525, -0.023178942501544952, 0.0555923655629158, -0.056410644203424454, -0.09236006438732147, 0.04138430207967758, -0.1167808398604393, -0.06723576039075851, -0.0321384035050869, 0.06975377351045609, -0.07167918980121613, -0.010822474956512451, 0.025735696777701378, 0.0034833254758268595, 0.031214475631713867, -0.05337779223918915, 0.05700766295194626, 0.08890189230442047, 0.044255226850509644, -0.02119559422135353, -0.13585199415683746, -0.10732093453407288, -0.02286279946565628, -0.0035022480878978968, 0.042143840342760086, 0.008622346445918083, 0.0013292980147525668, 0.004749137442559004, 0.059093404561281204, 0.08571768552064896, 0.09796160459518433, -0.020581340417265892, 0.02180883102118969, 0.06423647701740265, 0.02828018181025982, -0.003244296880438924, -0.08093494921922684, -0.12424377351999283, 0.05385158583521843, 0.035902298986911774, -0.002789856866002083, 0.05952185392379761, 0.05035866051912308, -0.08591726422309875, -0.1660129725933075, 0.054954178631305695, 0.08805666863918304, -0.005953917279839516, 0.020849550142884254, 0.14303013682365417, 0.059307780116796494, 0.08812759071588516, 0.09727676212787628, 0.10691975802183151, -0.021005498245358467, 0.060582857578992844, 0.024237092584371567, 0.04248564690351486, 0.055500734597444534, -0.1528722047805786, -0.1791391521692276, 0.05492202192544937, 0.04517127946019173, -0.009892255067825317, -0.09036492556333542, -0.03235873952507973, -0.0917438343167305, -0.011545689776539803, -0.035836998373270035, 0.018996691331267357, 0.025270674377679825, 0.031714703887701035, 0.07682263851165771, 0.0016280574491247535, 0.0023111868649721146, 0.028727315366268158, 0.05783792585134506, 0.06946086138486862, -0.02042311429977417, -0.05277926102280617, 0.006125154905021191, 0.004015506710857153, 0.005150164943188429, -0.0013971878215670586, -0.07879219204187393, -0.0988798514008522, -0.00010051362187368795, 0.013713590800762177, 0.007461495231837034, 0.0069455900229513645, -0.0462932363152504, -0.12065894901752472, -0.029041985049843788, 0.18319591879844666, 0.11082275211811066, 0.05161737650632858, 0.041650816798210144, 0.03201713785529137, -0.05936460196971893, 0.047092679888010025, 0.16039326786994934, 0.09738794714212418, 0.06057647615671158, 0.060458917170763016, 0.02936774305999279, 0.022927869111299515, 0.0531342439353466, -0.06584877520799637, -0.1015077531337738, 0.014510506764054298, 0.011746455915272236, -0.010160055942833424, -0.0645860880613327, -0.05958046391606331, -0.0770002081990242, -0.08469430357217789, 0.04938976839184761, 0.05543806403875351, 0.04038854315876961, 0.099406398832798, 0.1169414296746254, 0.021174481138586998, 0.05453401058912277, 0.04713033139705658, 0.012461925856769085, 0.0016913352301344275, 0.080815389752388, 0.0037639192305505276, 0.10769239068031311, 0.07542287558317184, -0.02611365169286728, 0.04784432798624039, -0.04587983340024948, 0.08612433820962906, 0.10637648403644562, -0.04112806171178818, -0.008057542145252228, -0.053691476583480835, 0.010993820615112782, -0.10594490170478821, -0.05381494760513306, -0.10593046247959137, -0.0027398548554629087, 0.04240741580724716, -0.06885264068841934, -0.061020754277706146, -0.15946924686431885, -0.22485841810703278, -0.04856397956609726, 0.07226771116256714, -0.022016560658812523, -0.08166913688182831, 0.025960508733987808, 0.014466834254562855, 0.02510359324514866, -0.03836845979094505, -0.08456907421350479, -0.04538258537650108, -0.06606317311525345, -0.020364711061120033, -0.022939074784517288, -0.13847403228282928, -0.028330689296126366, 0.0771762952208519, 0.07653555274009705, 0.04380517825484276, 0.014226089231669903, -0.0014725996879860759, 0.024054815992712975, 0.046365369111299515, 0.03243383765220642, 0.04954434558749199, -0.004623436834663153, 0.0023708930239081383, 0.0573870874941349, 0.08894751965999603, 0.03879360109567642, 0.07242105156183243, 0.002224934520199895, -0.0053365458734333515, -0.02960621938109398, 0.022163141518831253, 0.027595752850174904, -0.0014782109064981341, 0.06088493391871452, 0.0812506228685379, 0.04334179311990738, 0.026982570067048073, -0.06119408458471298, -0.05236121267080307, -0.1001555398106575, -0.09553378075361252, 0.03647156432271004, -0.04513125866651535, 0.017611844465136528, -0.07014498859643936, -0.0024823055136948824, -0.13071025907993317, -0.19324247539043427, 0.028966151177883148, -0.0042269486002624035, 0.03796534240245819, 0.00042526237666606903, 0.10809209942817688, 0.03570906072854996, 0.016993148252367973, -0.058332715183496475, -0.12411581724882126, -0.017222585156559944, -0.024671241641044617, 0.014425443485379219, -0.014478885568678379, -0.015132065862417221, -0.005936026573181152, -0.017490189522504807, -0.028229087591171265, 0.07183121144771576, 0.07551771402359009, -0.014841798692941666, 0.014063520357012749, 0.06879124790430069, 0.005079557187855244, 0.036268364638090134, 0.006652143318206072, 0.023421185091137886, 0.03881669044494629, 0.07867550849914551, 0.0772995725274086, 0.03971249237656593, 0.029179703444242477, 0.04795701429247856, -0.028710871934890747, 0.0958172008395195, 0.04882898926734924, -0.02563125267624855, -0.0002439386589685455, -0.01150651928037405, 0.0028807928320020437, -0.07237637042999268, -0.03566345199942589, -0.0006853361846879125, -0.032593321055173874, 0.05587184056639671, -0.03002646565437317, -0.027764542028307915, -0.07636373490095139, 0.06940940022468567, -0.027364840731024742, -0.07656124234199524, 0.026258530095219612, 0.006487129721790552, -0.04209933429956436, -0.04036339744925499, -0.0038817101158201694, -0.031167631968855858, -0.010763479396700859, 0.03998295217752457, -0.012349527329206467, -0.0028475055005401373, -0.015799405053257942, 0.014018586836755276, 0.006401164922863245, -0.01087705697864294, 0.05972675979137421, 0.0356072336435318, -0.028760457411408424, -0.0023269876837730408, 0.05038580298423767, 0.04654669016599655, -0.0035467352718114853, 0.008122517727315426, 0.029102487489581108, -0.010392620228230953, 0.020618606358766556, -0.030713748186826706, 0.06802251189947128, -0.0001451489224564284, -0.0351567305624485, 0.012897671200335026, -0.04321306571364403, -0.04119981452822685, -0.04920923337340355, -0.021604549139738083, -0.0008087262394838035, -0.06558234989643097, -0.02504841610789299, -0.022991789504885674, 0.032919880002737045, 0.002943872008472681, -0.013524854555726051, 0.01153603196144104, -0.01694163866341114, 0.058031901717185974, 0.059024080634117126, 0.17575393617153168, 0.05056745186448097, 0.07880385220050812, 0.04028097540140152, 0.0014552633510902524, 0.02364116534590721, -0.08870689570903778, -0.01618291810154915, -0.053191110491752625, 0.1462462693452835, 0.13127517700195312, 0.02635764516890049, 0.07572181522846222, 0.01323795411735773, -0.000950595538597554, 0.03605059161782265, -0.08043205738067627, -0.005480533465743065, -0.02013416402041912, 0.011999215930700302, 0.01761605590581894, 0.02665184997022152, -0.019747179001569748, -0.10722827166318893, -0.04818415269255638, 0.027668345719575882, 0.0008497452945448458, -0.0064732045866549015, 0.0020608839113265276, 0.0451975017786026, 0.022616388276219368, 0.04453001543879509, 0.046334363520145416, -0.027976999059319496, -0.03644207492470741, -0.003125808434560895, 0.013544355519115925, 0.0004048791015520692, 0.027816014364361763, 0.06187134236097336, -0.07910360395908356, -0.0019242180278524756, 0.01653144136071205, 0.02003495581448078, 0.0024043722078204155, -0.02414701133966446, 0.024223817512392998, -0.055843908339738846, 0.02708180993795395, -0.012694485485553741, 0.054616738110780716, -0.03960924223065376, -0.05924658104777336, -0.047737590968608856, -0.028300825506448746, -0.049155548214912415, -0.05577334761619568, 0.020409181714057922, -0.017249489203095436, -0.052631400525569916, -0.02318667806684971, 0.002069237641990185, 0.053886327892541885, 0.03862093389034271, 0.03443669527769089, 0.04470802843570709, 0.01864783652126789, 0.04066811129450798, -0.02897372841835022, -0.025048742070794106, -0.040683288127183914, -0.009284509345889091, 0.023803170770406723, 0.02610545977950096, -0.004442035686224699, 0.042262814939022064, -0.000569355150219053, -0.006893777288496494, -0.007735119666904211, 0.03878273442387581, 0.01774688810110092, -0.006912533659487963, -0.0523439422249794, -0.020411252975463867, -0.06501647084951401, 0.013180851936340332, 0.03229228034615517, -0.027384992688894272, 0.08339976519346237, -0.09634073078632355, 0.02698194608092308, 0.07514218986034393, 0.02238794043660164, -0.005060930736362934, 0.007234969642013311, 0.02322397567331791, -0.07458202540874481, 0.02961532026529312, 0.09655583649873734, 0.06041396036744118, 0.028002344071865082, -0.008206387981772423, -0.02913120575249195, 0.005759513936936855, -0.012652923353016376, -0.047047048807144165, -0.007219384424388409, 0.026529334485530853, -0.024930549785494804, -0.09402061253786087, -0.05286175385117531, 0.07271146029233932, 0.02012716792523861, 0.02406482584774494, -0.010324154980480671, 0.044880956411361694, 0.09024801105260849, -0.06321549415588379, -0.07526776194572449, -0.008134151808917522, -0.02817627601325512, 0.013614177703857422, 0.02982133813202381, 0.040527939796447754, 0.01976989395916462, 0.014036384411156178, -0.013723709620535374, 0.022630110383033752, 0.026671838015317917, 0.006095394026488066, 0.017801135778427124, -0.09907348453998566, -0.030577145516872406, -0.08196394890546799, -0.02788797952234745, 0.05397840216755867, 0.025725213810801506, -0.027317825704813004, -0.05203806236386299, -0.01781020499765873, 0.08103355020284653, 0.1019788384437561, 0.016077393665909767, -0.028134260326623917, -0.02299792878329754, -0.05658091977238655, 0.03145634010434151, -0.01706509105861187, 0.025770924985408783, 0.01523899007588625, -0.04975704848766327, -0.07617359608411789, 0.08424288034439087, 0.0406150184571743, -0.021017590537667274, 0.015570494346320629, 0.0682855173945427, -0.035338375717401505, -0.031033378094434738, -0.005251830443739891, 0.0365632027387619, 0.08406304568052292, 0.021672531962394714, 0.026082899421453476, 0.02088576927781105, -0.0059164040721952915, -0.006348398979753256, -0.03841683641076088, 0.028525851666927338, -0.040676720440387726, -0.04789755493402481, -0.01666472852230072, -0.010694319382309914, 0.06522184610366821, 0.029010867699980736, 0.04716877266764641, 0.0060638305731117725, -0.006559744011610746, 0.042525097727775574, 0.02814892865717411, -0.010988288559019566, 0.049850232899188995, -0.02658613584935665, -0.01750621758401394, 0.011463584378361702, -0.0678209587931633, -0.02441742643713951, -0.04147135093808174, -0.08793879300355911, -0.04521989822387695, -0.014992187730967999, -0.03685784712433815, -0.0724310353398323, -0.018188122659921646, -0.016706304624676704, -0.039070338010787964, -0.011553502641618252, 0.02401684783399105, 0.0037725616712123156, 0.02945411577820778, 0.029713789001107216, 0.03720138967037201, 0.02456151880323887, 0.03519071266055107, 0.13057616353034973, 0.048180412501096725, 0.046847809106111526, 0.02356170304119587, 0.0495077483355999, 0.004088326822966337, 0.10284785181283951, 0.03668176755309105, 0.0569051131606102, 0.0038964441046118736, -0.0008813386084511876, 0.04684425890445709, -0.018358781933784485, 0.021256012842059135, -0.047492049634456635, -0.059974126517772675, -0.04692864045500755, -0.053266990929841995, 0.018194084987044334, 0.007367456331849098, 0.10250917822122574, 0.14682252705097198, -0.008786256425082684, -0.004519313108175993, 0.04592481628060341, -0.026883697137236595, 0.0690511092543602, -0.009604313410818577, -0.008342328481376171, 0.0030181186739355326, -0.0363892987370491, -0.030075451359152794, 0.0499173067510128, 0.037720318883657455, -0.019135814160108566, 0.0565870925784111, 0.03645757585763931, -0.043239086866378784, -0.05898722633719444, 0.004323000553995371, 0.03437455743551254, -0.01308382023125887, 0.08910544216632843, -0.007988190278410912, -0.032369744032621384, 0.07421207427978516, -0.01655598357319832, -0.07766902446746826, 0.01975814253091812, 0.08349277824163437, 0.04466428607702255, 0.004160074517130852, 0.05371418967843056, 0.07546928524971008, -0.10089386254549026, -0.0253467857837677, 0.047650355845689774, 0.05731635540723801, -0.021239910274744034, -0.04538782685995102, 0.04198848083615303, -0.027930021286010742, -0.03430982306599617, -0.04628266021609306, -0.04369461163878441, -0.051231127232313156, 0.0033214217983186245, 0.03995852544903755, 0.03028244897723198, 0.018292343243956566, 0.023462215438485146, -0.008885620161890984, 0.04816563054919243, 0.006852414924651384, -0.03754589334130287, -0.029473422095179558, -0.08027863502502441, 0.009209776297211647, -0.020096616819500923, -0.02178221382200718, -0.06374494731426239, -0.0797136053442955, 0.07589561492204666, 0.033063169568777084, 0.13618984818458557, 0.13992096483707428, 0.1277555674314499, 0.048785753548145294, 0.0984782800078392, 0.11058936268091202, 0.10871482640504837, 0.13977861404418945, 0.08815205842256546, 0.10804188996553421, 0.051941320300102234, 0.05092208832502365, 0.01722218655049801, -0.027394983917474747, -0.025182148441672325, 0.06246647983789444, 0.06753572821617126, 0.008425421081483364, -0.006913239601999521, -0.10244812071323395, -0.09564191848039627, 0.005221848376095295, 0.06977024674415588, 0.11870871484279633, 0.03410418704152107, -0.010093921795487404, -0.01592910662293434, 0.04906182363629341, 0.1173614114522934, 0.030753904953598976, 0.02358759008347988, 0.04333139955997467, 0.016436461359262466, 0.0034334473311901093, 0.02345963940024376, 0.022096961736679077, 0.02014973759651184, -0.032616473734378815, -0.02072274684906006, -0.033838819712400436, 0.03449990972876549, 0.019238654524087906, -0.032680265605449677, -0.028217686340212822, -0.02981291152536869, 0.0045921108685433865, -0.00168580561876297, -0.031894415616989136, 0.029221612960100174, -0.03213687986135483, -0.019997287541627884, 0.024423673748970032, -0.015486701391637325, -0.03521372005343437, 0.005985114723443985, -0.004965880885720253, 0.03259291127324104, -0.019028544425964355, -0.0041991956532001495, 0.017182782292366028, 0.012727651745080948, 0.005664784461259842, -0.0040475837886333466, 0.014714237302541733, 0.0220690555870533, -0.0016098396154120564, -0.024899879470467567, 0.0034472644329071045, 0.023579083383083344, -0.0009789764881134033, -0.013069264590740204, 0.006033174693584442, -0.03257473558187485, 0.02388998493552208, -0.01995510794222355, 0.02878517284989357, 0.007413294166326523, 0.02808588370680809, -0.03219684213399887, 0.008440501987934113, 0.019156955182552338, 0.05275055393576622, 0.06300437450408936, -0.04855717718601227, 0.0002306290261913091, 0.021797489374876022, -0.036628711968660355, 0.016993846744298935, -0.007663963362574577, -0.01822061650454998, -0.06329306960105896, -0.002227828837931156, -0.036080487072467804, 0.010662059299647808, 0.017302153632044792, -0.04892074316740036, -0.034206192940473557, 0.04392843693494797, 0.18419283628463745, 0.04902442544698715, 0.11924231797456741, 0.04692893102765083, 0.010108725167810917, 0.023423263803124428, 0.1800720989704132, 0.11050783097743988, -0.10837946832180023, 0.015779662877321243, 0.018071545287966728, 0.06670404970645905, -0.02449527010321617, 0.13021598756313324, -0.07599146664142609, -0.10859854519367218, 0.07076864689588547, -0.009197433479130268, 0.012714541517198086, -0.04293226823210716, -0.0168286245316267, -0.03263755887746811, -0.10211319476366043, 0.030663680285215378, 0.03217258304357529, -0.003126987488940358, 0.011429653503000736, -0.0476992204785347, -0.10911882668733597, -0.031090278178453445, 0.058247897773981094, 0.023875348269939423, 0.02467263489961624, 0.03284791111946106, 0.003314751898869872, 0.03238261118531227, 0.0358949676156044, 0.011550124734640121, 0.03333805501461029, 0.023963090032339096, 0.025469575077295303, -0.054502300918102264, -0.043527089059352875, -0.025726256892085075, -0.024775341153144836, -0.05563170090317726, -0.04321535304188728, 0.051178935915231705, 0.09637749940156937, 0.011475715786218643, 0.14140653610229492, 0.04026761278510094, 0.004327314905822277, 0.02816542610526085, 0.12454576790332794, 0.08837345242500305, 0.16583679616451263, 0.1615968942642212, 0.08471950143575668, 0.04345894604921341, 0.047842107713222504, -0.029797649011015892, -0.04679763317108154, -0.024090800434350967, 0.026236385107040405, 0.06349234282970428, -0.06727011501789093, -0.007040304597467184, -0.048014115542173386, -0.09127877652645111, -0.05650923773646355, -0.003345828503370285, 0.11640888452529907, -0.021670427173376083, -0.015766581520438194, 0.011649529449641705, 0.10253427177667618, 0.2031562626361847, 0.019337881356477737, 0.008260955102741718, -0.008352771401405334, 0.006930530536919832, 0.012399562634527683, 0.1481352597475052, 0.03831048309803009, -0.04199120029807091, 0.015485498122870922, 0.05874767526984215, -0.010736025869846344, 0.07344167679548264, 0.10095041245222092, 0.029798882082104683, 0.01688924804329872, 0.002932067960500717, 0.0015640215715393424, 0.010637914761900902, 0.007023503538221121, -0.09701501578092575, -0.024180330336093903, 0.03307460620999336, -0.0336562804877758, -0.08563528209924698, 0.01204734854400158, -0.07158219814300537, -0.2366827428340912, -0.0436755046248436, -0.0409303680062294, -0.02256270870566368, -0.016028478741645813, 0.01307353563606739, 0.06932764500379562, -0.11103179305791855, -0.006887964438647032, 0.021434975787997246, 0.04405743628740311, -0.05505826324224472, 0.012457991018891335, -0.004446652252227068, -0.13191087543964386, -0.15438932180404663, 0.000810924859251827, 0.02787926234304905, -0.08289013803005219, -0.03645452857017517, -0.06572230905294418, -0.18147800862789154, -0.1400773674249649, -0.09883955121040344, -0.08150789141654968, -0.12619715929031372, 0.03410307690501213, 0.0509357713162899, -0.0367523692548275, 0.03207502141594887, -0.0362277626991272, -0.0003782064013648778, 0.0068649728782474995, 0.024933915585279465, 0.012813114561140537, -0.014424087479710579, -0.003942335955798626, -0.027210339903831482, -0.10316117107868195, -0.020713085308670998, -0.039424214512109756, -0.04700101166963577, 0.025971349328756332, 0.000753500615246594, -0.008940563537180424, 0.06569111347198486, 0.03791247308254242, -0.03316132724285126, -0.011738842353224754, -0.0253556240350008, -0.14094014465808868, -0.05529654771089554, 0.08580119907855988, -0.14663569629192352, 0.03704753890633583, 0.026983553543686867, -0.021923651918768883, -0.03402881324291229, -0.045221686363220215, 0.015984490513801575, 0.15105152130126953, 0.030956067144870758, 0.04601791501045227, 0.06522801518440247, 0.06711457669734955, 0.062414105981588364, 0.010985557921230793, 0.02129068411886692, 0.033493027091026306, -0.05141431838274002, 0.0325411856174469, 0.008399683982133865, 0.004186081234365702, -0.08911255747079849, -0.051082439720630646, 0.011862904764711857, -0.02957082912325859, -0.0011117253452539444, -0.014959572814404964, -0.06707938015460968, -0.050821028649806976, 0.015742629766464233, 0.04083552211523056, 0.0317925401031971, 0.0662023276090622, 0.04000118747353554, -0.007232667878270149, -0.06861008703708649, 0.009939026087522507, 0.02437838353216648, 0.09769704937934875, 0.18755970895290375, 0.1314537525177002, 0.03015787899494171, 0.06415750831365585, 0.054467882961034775, 0.027593711391091347, 0.19096820056438446, 0.0009222544613294303, -0.026558464393019676, 0.20705914497375488, 0.06263631582260132, -0.024382170289754868, -0.015993641689419746, -0.05607317015528679, -0.08701807260513306, 0.005813952535390854, 0.018702005967497826, 0.0847395732998848, 0.04233049973845482, 0.05004698783159256, -0.07298225164413452, 0.06013062596321106, 0.08271685987710953, 0.06821151077747345, -0.05630528926849365, -0.010575239546597004, -0.01999552734196186, -0.019224317744374275, 0.08761130273342133, 0.07903235405683517, 0.01567043364048004, -0.054257526993751526, -0.021271556615829468, 0.012472158297896385, 0.007958680391311646, 0.07243919372558594, 0.14580178260803223, 0.005366527009755373, 0.015298929065465927, 0.03140638768672943, -0.054387111216783524, 0.12835776805877686, 0.01140668336302042, -0.030471745878458023, 0.036289237439632416, -0.014072071760892868, -0.03036351315677166, 0.05801986902952194, 0.05442902818322182, 0.01825440302491188, 0.0007166211726143956, 0.02911587432026863, -0.05790701135993004, -0.013051914982497692, 0.07546058297157288, 0.15526528656482697, -0.0032108428422361612, 0.03266266733407974, -0.02902194671332836, -0.025844832882285118, -0.015002193860709667, -0.02991343103349209, -0.0269889235496521, -0.040637627243995667, 0.05017802119255066, 0.0736730545759201, 0.0321040153503418, -0.023565107956528664, 0.06747979670763016, -0.12326472997665405, -0.010679814964532852, 0.05670555680990219, 0.1321386992931366, -0.04124372825026512, -0.08530285954475403, 0.04405733570456505, -0.0168348029255867, 0.04648284241557121, 0.07007427513599396, 0.014561382122337818, -0.018657686188817024, -0.04007303714752197, 0.03965349867939949, 0.03185107558965683, -0.015099185518920422, 0.01229938119649887, 0.012930517084896564, -0.014000448398292065, 0.02922973595559597, -0.02049395628273487, 0.04531549662351608, -0.05933268740773201, 0.07551480829715729, -0.08234982937574387, -0.0795048251748085, 0.006802211981266737, -0.08386880904436111, 0.008831672370433807, 0.061426274478435516, 0.14863421022891998, -0.017584023997187614, 0.05460080876946449, 0.049872562289237976, -0.007259662728756666, 0.055641256272792816, 0.15093839168548584, -0.04130640998482704, -0.12635885179042816, 0.07913217693567276, -0.005288459826260805, -0.005222131498157978, -0.010468987748026848, 0.05029614642262459, -0.05665628984570503, -0.11051645874977112, 0.11373463273048401, -0.007476379629224539, -0.028987372294068336, 0.03892845660448074, -0.03119705244898796, -0.09244592487812042, 0.01707020215690136, 0.11352696269750595, -0.01008493360131979, -0.025252079591155052, 0.05244540423154831, 0.012301594018936157, -0.058435652405023575, 0.031823109835386276, -0.00531950406730175, -0.01385547872632742, 0.024251004680991173, 0.029518768191337585, 0.1312985122203827, 0.04085853323340416, 0.03256743401288986, 0.08987560123205185, 0.03525353595614433, -0.0013402735348790884, 0.08583051711320877, 0.002007829723879695, 0.04327866807579994, 0.013667046092450619, -0.02203221805393696, -0.035574328154325485, 0.04005225747823715, 0.00712437042966485, -0.08733586966991425, 0.019177673384547234, -0.05842646583914757, -0.06153130903840065, -0.06591476500034332, 0.00827452726662159, -0.019009025767445564, -0.0627700611948967, 0.044995713979005814, -0.07625337690114975, 0.02324025332927704, 0.053748175501823425, -0.011180209927260876, -0.07004857808351517, 0.044623374938964844, 0.033370692282915115, -0.02054491639137268, -0.040567658841609955, 0.05865558981895447, -0.008461435325443745, 0.011595331132411957, 0.03065234236419201, -0.009961087256669998, 0.06157136708498001, -0.0030318840872496367, -0.038837216794490814, 0.04711151123046875, -0.036435093730688095, -0.03449723497033119, -0.07013287395238876, -0.08370915800333023, -0.07779112458229065, -0.004252936225384474, 0.009430698119103909, -0.021547555923461914, 0.04022764042019844, 0.14211814105510712, 0.017501821741461754, 0.014163751155138016, 0.0243141520768404, 0.02246399223804474, 0.09703448414802551, -0.014760336838662624, 0.0914815366268158, 0.07629911601543427, -0.00871339626610279, -0.0018512113019824028, 0.0683189108967781, 0.08256924152374268, -0.010582918301224709, -0.015026702545583248, -0.0068125976249575615, 0.002026459202170372, 0.0027408795431256294, -0.06537148356437683, -0.06546608358621597, -0.1455615609884262, -0.0138920359313488, 0.08555477112531662, 0.04829336702823639, 0.007332116365432739, -0.02151462435722351, -0.07268352061510086, 0.007684242445975542, -0.017074361443519592, 0.05388839542865753, 0.1981699913740158, -0.05040515586733818, 0.051825568079948425, 0.013163222000002861, 0.14148007333278656, 0.08000015467405319, -0.026146065443754196, 0.0898766741156578, 0.011862827464938164, -0.036314353346824646, 0.04415978118777275, 0.009648939594626427, -0.1656668484210968, -0.14529696106910706, -0.044473689049482346, 0.021909184753894806, 0.03717797249555588, 0.06793861091136932, 0.03292941674590111, 0.024752402678132057, 0.006904896814376116, 0.06061067059636116, 0.010289113037288189, -0.014561199583113194, 0.007270561996847391, -0.005262217950075865, 0.03924179449677467, 0.002889058319851756, -0.07566308230161667, -0.06110236421227455, -0.06655469536781311, -0.048338744789361954, -0.03886430338025093, -0.04345091059803963, -0.005189009942114353, -0.02873348630964756, -0.029276838526129723, -0.04300845041871071, -0.055870745331048965, -0.014835741370916367, 0.046290166676044464, 0.010273313149809837, 0.014350485056638718, 0.09500443935394287, 0.03559166193008423, -0.00751282786950469, 0.0619165375828743, 0.12412888556718826, 0.08361384272575378, -0.027976280078291893, 0.0497572235763073, 0.03065504878759384, 0.003934177570044994, 0.07755381613969803, 0.07416895031929016, 0.010888378135859966, -0.06116366758942604, -0.013149493373930454, 0.04842359200119972, -0.07830236852169037, -0.07340800017118454, -0.0910036563873291, -0.08751200884580612, -0.0824771299958229, 0.007073577959090471, -0.007016807794570923, 0.11804360151290894, 0.006577393505722284, -0.011613847687840462, 0.06426778435707092, 0.05026785284280777, 0.01975077949464321, -0.003208568785339594, 0.05170926824212074, 0.012417681515216827, -0.031006472185254097, -0.04952139034867287, -0.014552286826074123, -0.011647890321910381, -0.07957010716199875, -0.08712150156497955, -0.12353694438934326, -0.06639130413532257, -0.015824994072318077, -0.008001582697033882, -0.018983975052833557, -0.06938046962022781, -0.08008160442113876, -0.028193457052111626, 0.04362072795629501, 0.026036597788333893, -0.0344557985663414, -0.023756273090839386, 0.059205301105976105, 0.030031727626919746, 0.016213877126574516, 0.0782395675778389, 0.060170646756887436, -0.04053788632154465, 0.08110494911670685, 0.04494348540902138, 0.01876058802008629, 0.07688633352518082, 0.07651948183774948, 0.06150181218981743, -0.04380126670002937, -0.0799444392323494, -0.038965772837400436, -0.057748738676309586, -0.01110580563545227, -0.04164363443851471, -0.04593132063746452, -0.0793236792087555, -0.07792568951845169, 0.03141239657998085, 0.04802646115422249, -0.026414791122078896, 0.00819186307489872, 0.013009965419769287, 0.029787147417664528, 0.07698632776737213, -0.0028881996404379606, -0.012083986774086952, 0.013176155276596546, 0.011482847854495049, 0.007028807420283556, -0.04752222076058388, -0.0607844702899456, -0.04925866052508354, -0.030638176947832108, -0.06593457609415054, -0.052971694618463516, -0.029814276844263077, -0.036537762731313705, 0.021146154031157494, 0.13060157001018524, -0.04310061037540436, -0.12723198533058167, 0.04603664577007294, -0.012320890091359615, 0.016755176708102226, 0.006539912894368172, 0.021483028307557106, -0.01470200251787901, 0.0040016998536884785, 0.14199507236480713, 0.0685829296708107, 0.007477851118892431, 0.00091567198978737, -0.019407927989959717, 0.018001994118094444, 0.03467182070016861, 0.040444254875183105, 0.02052529901266098, -0.011920282617211342, -0.07122893631458282, 0.008751647546887398, 0.02408437989652157, -0.12766516208648682, -0.12692083418369293, -0.09668776392936707, -0.07577096670866013, -0.10485764592885971, 0.045382171869277954, -0.02277945540845394, -0.02478012815117836, -0.00586498761549592, -0.0354042686522007, -0.03509024903178215, 0.00723074609413743, 0.06391122937202454, -0.004042983055114746, 0.06203040853142738, -0.006760405842214823, 0.011859417892992496, -0.028646240010857582, -0.003698450280353427, 0.050210244953632355, 0.028917845338582993, 0.036508429795503616, 0.009443611837923527, -0.025823934003710747, -0.012190579436719418, 0.01065540686249733, 0.06790195405483246, 0.017880167812108994, -0.008068553172051907, -0.0482759103178978, 0.03505304828286171, 0.03532753884792328, 0.009577199816703796, 0.030997786670923233, 0.02557871676981449, -0.023914039134979248, -0.010549644008278847, 0.01945098303258419, 0.028516070917248726, 0.029584940522909164, 0.030397092923521996, 0.029094744473695755, 0.01110693346709013, -0.020334618166089058, -0.030588513240218163, 0.0004216339439153671, 0.04100165516138077, 0.04257975146174431, -0.021193649619817734, -0.007486519869416952, 0.02339937537908554, -0.00969602633267641, 0.02516859583556652, 0.02009199745953083, 0.054371219128370285, 0.01465583685785532, -0.013533193618059158, -0.057526811957359314, -0.09101267158985138, -0.052058178931474686, 0.04347602650523186, 0.02366059646010399, -0.006097425241023302, 0.030621210113167763, -0.08927962183952332, -0.08445123583078384, -0.0689254105091095, -0.002369644120335579, -0.027116455137729645, -0.006912420969456434, 0.040623702108860016, 0.06564299017190933, -0.05763953551650047, -0.03403371572494507, -0.013440956361591816, 0.012022148817777634, -0.01743539795279503, 0.029943611472845078, -0.03925184905529022, -0.01916179433465004, 0.037604689598083496, -0.0069206333719193935, 0.006650403141975403, 0.02410075254738331, 0.0016999723156914115, 0.027833545580506325, 0.07214141637086868, 0.053041972219944, 0.03334018588066101, 0.004548647440969944, 0.03614944592118263, 0.0716455802321434, 0.02374938689172268, -0.06508652865886688, -0.04898754879832268, 0.002921653212979436, 0.016449689865112305, -0.004598125349730253, 0.0802999883890152, 0.0008483145502395928, -0.030213724821805954, -0.006877630949020386, -0.0014834305038675666, 0.013084742240607738, 0.04624159261584282, 0.05910396948456764, -0.0028281996492296457, -0.053032249212265015, -0.06454051285982132, 0.01736547239124775, 0.004361466038972139, 0.014026248827576637, 0.03023824281990528, 0.0970534160733223, 0.02823851816356182, -0.023858100175857544, -0.02828766405582428, 0.033715877681970596, 0.011634944006800652, 0.090827077627182, -0.004614738281816244, -0.0026181465946137905, -0.0691392794251442, -0.004089924972504377, 0.0029488850850611925, 0.06422173231840134, 0.051023226231336594, -0.0330079048871994, -0.03781478479504585, -0.05095912143588066, 0.0473184809088707, -0.013502094894647598, -0.011577081866562366, -0.009258602745831013, 0.07267645001411438, 0.01359186228364706, -0.029405806213617325, -0.025413665920495987, -0.015671556815505028, 0.005261606071144342, 0.04576849937438965, -0.018203305080533028, 0.06654289364814758, 0.12737911939620972, 0.08682794123888016, 0.01012739073485136, 0.06691250950098038, -0.014925975352525711, 0.047849081456661224, 0.14924608170986176, 0.016311166808009148, 0.04247128590941429, -0.021928958594799042, -0.031847644597291946, -0.015074159950017929, -0.012733310461044312, 0.028196517378091812, 0.027103867381811142, -0.027519039809703827, -0.019725417718291283, 0.03295700624585152, 0.010759152472019196, -0.017150789499282837, 0.011571887880563736, 0.005930163897573948, 0.025711502879858017, 0.01623566448688507, 0.028292428702116013, -0.006466630846261978, 0.031007777899503708, -0.015366299077868462, 0.0024145469069480896, 0.012676908634603024, 0.02133212611079216, 0.0177086740732193, -0.019337838515639305, 0.01501571387052536, 